[[0.0, 0.0, 0.0, 0.0, 0.0, 0.0, 0.0, 0.0, 0.0, 0.0], [0.0, 0.0, 0.0, 0.0, 0.0, 0.0, 0.0, 0.0, 0.0, 0.0], [0.0, 0.0, 0.0, 0.0, 0.0, 0.0, 0.0, 0.0, 0.0, 0.0], [0.0, 0.0, 0.0, 0.0, 0.0, 0.0, 0.0, 0.0, 0.0, 0.0], [0.0, 0.0, 0.0, 0.0, 0.0, 0.0, 0.0, 0.0, 0.0, 0.0], [0.0, 0.0, 0.0, 0.0, 0.0, 0.0, 0.0, 0.0, 0.0, 0.0], [0.0, 0.0, 0.0, 0.0, 0.0, 0.0, 0.0, 0.0, 0.0, 0.0], [0.0, 0.0, 0.0, 0.0, 0.0, 0.0, 0.0, 0.0, 0.0, 0.0], [0.0, 0.0, 0.0, 0.0, 0.0, 0.0, 0.0, 0.0, 0.0, 0.0], [0.0, 0.0, 0.0, 0.0, 0.0, 0.0, 0.0, 0.0, 0.0, 0.0], [0.0, 0.0, 0.0, 0.0, 0.0, 0.0, 0.0, 0.0, 0.0, 0.0], [0.0, 0.0, 0.0, 0.0, 0.0, 0.0, 0.0, 0.0, 0.0, 0.0], [-8.70071289682528e-06, -8.669410817674361e-06, -0.00017022159590851516, -2.853832847904414e-05, -0.0011871112510561943, -3.591815402614884e-05, 0.0017087904270738363, -1.1361791621311568e-05, -5.92122960370034e-05, -0.0001990567398024723], [-3.458132778177969e-05, -2.7500404030433856e-05, -7.347780046984553e-05, -7.114650361472741e-05, -0.0027175669092684984, -8.461029938189313e-05, 0.003671819344162941, -3.895126428687945e-05, -0.00015081035962793976, -0.00047317432472482324], [-1.7281661712331697e-05, -9.478211723035201e-06, 0.00033300663926638663, -9.634040907258168e-06, -0.0001315363188041374, -6.634458259213716e-06, -7.772145909257233e-05, -1.5660405551898293e-05, -2.35423995036399e-05, -4.151746543357149e-05], [-7.200690674835641e-07, -3.9492542214247806e-07, 1.387527481711004e-05, -4.0141844692698214e-07, -5.480680101754842e-06, -2.764357418527652e-07, -3.2383936741098296e-06, -6.525169737869874e-07, -9.809331231735996e-07, -1.7298941656918032e-06], [0.0, 0.0, 0.0, 0.0, 0.0, 0.0, 0.0, 0.0, 0.0, 0.0], [0.0, 0.0, 0.0, 0.0, 0.0, 0.0, 0.0, 0.0, 0.0, 0.0], [0.0, 0.0, 0.0, 0.0, 0.0, 0.0, 0.0, 0.0, 0.0, 0.0], [0.0, 0.0, 0.0, 0.0, 0.0, 0.0, 0.0, 0.0, 0.0, 0.0], [0.0, 0.0, 0.0, 0.0, 0.0, 0.0, 0.0, 0.0, 0.0, 0.0], [0.0, 0.0, 0.0, 0.0, 0.0, 0.0, 0.0, 0.0, 0.0, 0.0], [0.0, 0.0, 0.0, 0.0, 0.0, 0.0, 0.0, 0.0, 0.0, 0.0], [0.0, 0.0, 0.0, 0.0, 0.0, 0.0, 0.0, 0.0, 0.0, 0.0], [0.0, 0.0, 0.0, 0.0, 0.0, 0.0, 0.0, 0.0, 0.0, 0.0], [0.0, 0.0, 0.0, 0.0, 0.0, 0.0, 0.0, 0.0, 0.0, 0.0], [0.0, 0.0, 0.0, 0.0, 0.0, 0.0, 0.0, 0.0, 0.0, 0.0], [0.0, 0.0, 0.0, 0.0, 0.0, 0.0, 0.0, 0.0, 0.0, 0.0], [0.0, 0.0, 0.0, 0.0, 0.0, 0.0, 0.0, 0.0, 0.0, 0.0], [0.0, 0.0, 0.0, 0.0, 0.0, 0.0, 0.0, 0.0, 0.0, 0.0], [0.0, 0.0, 0.0, 0.0, 0.0, 0.0, 0.0, 0.0, 0.0, 0.0], [0.0, 0.0, 0.0, 0.0, 0.0, 0.0, 0.0, 0.0, 0.0, 0.0], [-1.0673725370224929e-07, -5.7631503125321615e-08, -4.336310212238459e-06, -1.575395458530693e-08, -1.4597922927350737e-05, -1.9614540747170395e-07, 2.1021885913796723e-05, -8.076833779568915e-08, -4.760024978622823e-07, -1.1546247833393863e-06], [-7.555436241091229e-07, -2.0141935408446443e-07, -1.4521392586175352e-05, -1.2742262356368883e-07, -7.775673293508589e-05, -7.001974609011086e-07, 0.00010136488708667457, -9.735697403812082e-07, -1.5596104958603974e-06, -4.769032329932088e-06], [-3.2372230634791777e-05, -2.9248883492982714e-06, -0.00020367917022667825, -1.2683038221439347e-05, -0.00517573207616806, -2.2722228095517494e-05, 0.005665602162480354, -6.165307422634214e-05, -1.4779558114241809e-05, -0.00013905653031542897], [-7.62043273425661e-05, -3.5446908441372216e-05, -0.0004287084157112986, -3.1181185477180406e-05, -0.012293205596506596, -4.707819243776612e-05, 0.013486308045685291, -0.0001921649236464873, -5.5120905017247424e-05, -0.0003272048488724977], [-0.00014538939285557717, -0.0013233638601377606, 0.00011712215200532228, -0.00012844798038713634, -0.012490681372582912, -8.334010635735467e-05, 0.01561528630554676, -0.0006323217530734837, -0.00045301494537852705, -0.000475841952720657], [-0.0001893747685244307, -0.0010911523131653666, -0.0007451348938047886, -0.00013603524712380022, -0.007151277735829353, -7.362489122897387e-05, 0.010797384195029736, -0.0005042193224653602, -0.0005186750204302371, -0.0003878896532114595], [-0.0005934902001172304, -0.0007488650735467672, -0.0018063890747725964, -0.00015431029896717519, -0.013697797432541847, -0.00020399666391313076, 0.019014570862054825, -0.00045128318015486, -0.0005607454804703593, -0.0007976935594342649], [0.0026358761824667454, -0.0004660731938201934, -0.004585303366184235, -0.00026009700377471745, -0.020229937508702278, -0.00031085414229892194, 0.028182925656437874, -0.0019790190272033215, -0.0007835915312170982, -0.002203946001827717], [0.006200466305017471, -0.0003480901359580457, -0.006006039213389158, -0.00042057785321958363, -0.033570680767297745, -0.0012370349140837789, 0.043446410447359085, -0.0035899579524993896, -0.0008016929496079683, -0.0036728307604789734], [0.002494438784196973, -0.0002504433214198798, -0.0039632851257920265, -0.00031651591416448355, -0.020464099943637848, -0.001267096376977861, 0.028123291209340096, -0.0013557347701862454, -0.0008720720070414245, -0.0021284923423081636], [-0.0006967853405512869, 0.004699015524238348, -0.0001442628272343427, -0.001148878363892436, -0.01013872493058443, -0.0009229524875991046, 0.011097680777311325, -0.0003240329388063401, -0.0012128092348575592, -0.0012082504108548164], [0.002373738447204232, 0.007037014700472355, 0.003528609639033675, -0.0014380592620000243, -0.017796048894524574, -0.0009520216844975948, 0.011905871331691742, -0.0005068940808996558, -0.001141862478107214, -0.0030103428289294243], [0.007492697797715664, -0.0013006168883293867, 0.014141194522380829, -0.0005954800290055573, -0.01877792365849018, -0.0008432862814515829, 0.008297150954604149, -0.0008681628969497979, -0.0014134716475382447, -0.006132100708782673], [0.0033850250765681267, -0.0010758691933006048, 0.002764910226687789, -0.00029112756601534784, -0.009223884902894497, -0.0006385268061421812, 0.01036866381764412, -0.0004466969985514879, -0.0012167608365416527, -0.003625730751082301], [-0.0004389630048535764, -0.0002214843116234988, -0.0037046473007649183, -0.0001254034723388031, -0.004577903542667627, -0.0007841685437597334, 0.011731114238500595, -0.00019398493168409914, -0.0008012712351046503, -0.0008832854800857604], [-0.00033441963023506105, -0.00015558047743979841, -0.003565998515114188, -0.00011538760736584663, -0.005452190991491079, -0.0007422930793836713, 0.011754736304283142, -0.00018625572556629777, -0.0005453985650092363, -0.0006572152487933636], [-0.0001988843723665923, -0.0001258312549907714, -0.0022472941782325506, -9.186698298435658e-05, -0.004093260504305363, -0.0004118936194572598, 0.008136159740388393, -9.69989487202838e-05, -0.0003850869252346456, -0.00048504199367016554], [-0.00010659019608283415, -0.00012474121467676014, -0.0012667642440646887, -5.039613461121917e-05, -0.004325693938881159, -0.00011660452582873404, 0.006549730896949768, -2.2389409423340112e-05, -0.0003241466183681041, -0.00021240678324829787], [-2.7445863452157937e-05, -1.571121538290754e-05, -0.00015430344501510262, -9.972605766961351e-06, -0.004777432885020971, -1.546693965792656e-05, 0.005204583052545786, -2.1846435629413463e-05, -7.333547546295449e-05, -0.00010907022806350142], [-6.289875273068901e-06, -7.75816533860052e-06, -6.442991434596479e-05, -9.40083191380836e-06, -0.0011459601810202003, -1.4383562302100472e-05, 0.0013633649796247482, -2.9096596335875802e-05, -3.3387252187822014e-05, -5.2658630011137575e-05], [0.0, 0.0, 0.0, 0.0, 0.0, 0.0, 0.0, 0.0, 0.0, 0.0], [0.0, 0.0, 0.0, 0.0, 0.0, 0.0, 0.0, 0.0, 0.0, 0.0], [0.0, 0.0, 0.0, 0.0, 0.0, 0.0, 0.0, 0.0, 0.0, 0.0], [0.0, 0.0, 0.0, 0.0, 0.0, 0.0, 0.0, 0.0, 0.0, 0.0], [0.0, 0.0, 0.0, 0.0, 0.0, 0.0, 0.0, 0.0, 0.0, 0.0], [0.0, 0.0, 0.0, 0.0, 0.0, 0.0, 0.0, 0.0, 0.0, 0.0], [-2.105302741028936e-07, -8.741770862741305e-09, -6.119049089647888e-07, -2.68463971053734e-08, -2.170101652154699e-06, -7.405973292406998e-07, 5.445259375846945e-06, -1.1944285560616663e-09, -7.179657472988765e-07, -9.57414272306778e-07], [0.00020054166088812053, -1.4176915641428423e-08, -6.906951512064552e-06, -5.800203553008032e-07, -0.00016742065781727433, -1.88942995009711e-05, 4.6973273128969595e-05, -2.345028769923374e-05, -4.566596089716768e-06, -2.568189665907994e-05], [8.111968054436147e-05, -2.228552375527215e-06, -0.00019573951431084424, -1.7725237739796285e-06, -0.0002555487444624305, -8.54512836667709e-06, 0.0004411144182085991, -1.3351545021578204e-05, -1.8899558199336752e-05, -2.614840013848152e-05], [-9.18895093491301e-05, -2.5491601718385937e-06, -5.804073589388281e-05, -1.5577983504044823e-05, -0.00019631290342658758, -3.6419121443032054e-06, 0.00039933802327141166, -6.239095000637462e-06, -1.0567674507910851e-05, -1.4519171600113623e-05], [-0.002274090889841318, -3.7467216316144913e-05, -0.00097942806314677, -0.00014643593749497086, -0.00595842394977808, -7.116969209164381e-05, 0.010036487132310867, -0.00023719095042906702, -0.00011770501441787928, -0.0002145752077922225], [-0.002657955279573798, -0.0008778457995504141, -0.0023611702490597963, -0.0007675877423025668, -0.02239888720214367, -0.0007053107838146389, 0.03216724842786789, -0.0008673295378684998, -0.0006022141315042973, -0.0009289456647820771], [-0.0038304124027490616, -0.005778019316494465, 0.0007746508927084506, -0.0026751707773655653, -0.029766704887151718, -0.0011750062694773078, 0.04753892496228218, -0.0018986581126227975, -0.001645187265239656, -0.0015444114105775952], [-0.006584688555449247, -0.009783731773495674, 0.011220893822610378, -0.0050711543299257755, -0.0331689789891243, -0.003404193790629506, 0.0564056895673275, -0.0027813278138637543, -0.004418444819748402, -0.002413956681266427], [-0.008074185810983181, -0.010569707490503788, 0.009377294220030308, -0.0034442085307091475, -0.0636211633682251, -0.007946222089231014, 0.10275445133447647, -0.005013701040297747, -0.007907033897936344, -0.005555530544370413], [-0.010774870403110981, -0.011353857815265656, 0.02001463808119297, 0.0021975692361593246, -0.07806729525327682, -0.015548002906143665, 0.12289897352457047, -0.009315856732428074, -0.011348842643201351, -0.00870261900126934], [-0.012974449433386326, 0.0005677539738826454, 0.013266704976558685, 0.0026422447990626097, -0.1052185669541359, -0.020094729959964752, 0.1593167781829834, -0.009132369421422482, -0.01511269249022007, -0.013260711915791035], [-0.018948469310998917, 0.021995164453983307, 0.008672401309013367, -0.0025735879316926003, -0.09565798938274384, -0.025450754910707474, 0.15357008576393127, -0.0068676164373755455, -0.019641727209091187, -0.015097626484930515], [-0.03005784936249256, 0.02741590142250061, 0.023877518251538277, -0.002160813892260194, -0.07491090893745422, -0.028894122689962387, 0.13019555807113647, -0.008024133741855621, -0.02201017737388611, -0.015430890955030918], [-0.03639549762010574, 0.048101965337991714, 0.03548678755760193, -0.008848564699292183, -0.07862727344036102, -0.02237880975008011, 0.11368682980537415, -0.009203947149217129, -0.02477329783141613, -0.017048053443431854], [-0.03193437680602074, 0.027886833995580673, 0.029117362573742867, -0.007039697375148535, -0.07673431932926178, -0.0091902706772089, 0.11877218633890152, -0.006857120897620916, -0.025169165804982185, -0.018851548433303833], [-0.02729463204741478, 0.0020672159735113382, 0.00476835248991847, -0.005525469314306974, -0.04476606100797653, 0.002625569934025407, 0.10713815689086914, -0.005289112217724323, -0.019421827048063278, -0.014302208088338375], [-0.020847588777542114, -0.005346271209418774, -0.014206579886376858, -0.008467109873890877, -0.031074604019522667, 0.005267972592264414, 0.09849698096513748, -0.0036353173200041056, -0.010496445931494236, -0.009691066108644009], [-0.017118394374847412, -0.0015308256261050701, -0.03038923442363739, -0.006273951847106218, -0.016476212069392204, 0.0007027224055491388, 0.09254961460828781, -0.0022751744836568832, -0.012513726018369198, -0.006674831733107567], [-0.012292412109673023, -0.0050631118938326836, -0.019874200224876404, -0.0034783019218593836, -0.009615829214453697, -0.010217002592980862, 0.07153787463903427, -0.0012807482853531837, -0.0063433474861085415, -0.0033729502465575933], [-0.006847776006907225, -0.004322991240769625, -0.01739472895860672, -0.003150427946820855, -0.007407589349895716, -0.00877516157925129, 0.05622762441635132, -0.000888136331923306, -0.004862577188760042, -0.0025782156735658646], [-0.003526578424498439, -0.0025288634933531284, -0.014207081869244576, -0.0022801843006163836, -0.007609446533024311, -0.004080847837030888, 0.03980583697557449, -0.0005710924742743373, -0.003509660018607974, -0.001492074690759182], [-0.0015059304423630238, -0.0014188834466040134, -0.005452388431876898, -0.0008188426145352423, -0.004779085982590914, -0.004202498123049736, 0.020253265276551247, -0.00011885705316672102, -0.0015703729586675763, -0.00038642765139229596], [-0.0003783143765758723, -0.0005151453660801053, 0.003965909592807293, -0.0001706445327727124, -0.0010945897083729506, -0.0026332035195082426, 0.0018018787959590554, -3.559676042641513e-05, -0.0008468867163173854, -9.340805263491347e-05], [-1.7091146219172515e-05, -5.75506201130338e-05, 0.0038102110847830772, -2.9910534067312256e-06, -0.00024082876916509122, -0.0003943976480513811, -0.0027844300493597984, -8.501899628754472e-07, -0.0002980597491841763, -1.4012217434355989e-05], [0.0, 0.0, 0.0, 0.0, 0.0, 0.0, 0.0, 0.0, 0.0, 0.0], [0.0, 0.0, 0.0, 0.0, 0.0, 0.0, 0.0, 0.0, 0.0, 0.0], [0.0, 0.0, 0.0, 0.0, 0.0, 0.0, 0.0, 0.0, 0.0, 0.0], [0.0, 0.0, 0.0, 0.0, 0.0, 0.0, 0.0, 0.0, 0.0, 0.0], [-4.879518087363977e-07, 9.225538087775931e-05, -1.5129904568311758e-05, -3.176601694576675e-06, -4.977260687155649e-06, -2.3905131456558593e-06, -4.3188345443923026e-05, -1.0374606063123792e-07, -2.0476731151575223e-05, -2.324424485777854e-06], [0.0002512949286028743, 1.9792609236901626e-05, -6.915933772688732e-05, -1.690269709797576e-05, -0.0006371427443809807, -2.752503496594727e-05, 0.0007868270040489733, -7.947529957164079e-05, -0.00011301798076601699, -0.00011469163291621953], [-0.0017517806263640523, -2.4044758902164176e-05, -0.0008847065037116408, -0.0006226720870472491, -0.0005588827771134675, 0.0017989305779337883, 0.0025958428159356117, -0.000347650347976014, -0.00011423471005400643, -9.079965821001679e-05], [-0.009966404177248478, -0.0004343764449004084, 0.0005312612047418952, 0.015200274996459484, -0.0011436762288212776, -0.006584998220205307, 0.0042492980137467384, -0.0004970699083060026, -0.0010266185272485018, -0.0003276807547081262], [-0.013571788556873798, -0.001164388144388795, 0.0021764489356428385, 0.013219734653830528, -0.010946143418550491, -0.005448364652693272, 0.020243804901838303, -0.0010634110076352954, -0.002397012198343873, -0.0010488750413060188], [-0.017111988738179207, -0.0061322227120399475, 0.014462357386946678, 0.022169962525367737, -0.025730200111865997, -0.011641058139503002, 0.037848539650440216, -0.004568381235003471, -0.006634811870753765, -0.0026621639262884855], [-0.010467489250004292, -0.01852339878678322, 0.04041169211268425, 0.02755422331392765, -0.052949849516153336, -0.01537936832755804, 0.0574079304933548, -0.01128563191741705, -0.011158961802721024, -0.005609216168522835], [-0.025068793445825577, -0.0298027154058218, 0.1088559478521347, 0.018135657534003258, -0.08198438584804535, -0.026324398815631866, 0.08203273266553879, -0.01602746918797493, -0.019629403948783875, -0.010187113657593727], [-0.026802634820342064, -0.048107560724020004, 0.1322759985923767, 0.04016914218664169, -0.1103389710187912, -0.02751498855650425, 0.11604751646518707, -0.026527302339673042, -0.03130966052412987, -0.017891639843583107], [-0.019964605569839478, -0.07020261883735657, 0.16527369618415833, 0.10162203013896942, -0.14153705537319183, -0.0515144020318985, 0.12867461144924164, -0.03753093630075455, -0.04793410375714302, -0.026886790990829468], [-0.02901621349155903, -0.04682225361466408, 0.18293237686157227, 0.1435965895652771, -0.19169045984745026, -0.05204145237803459, 0.12230604141950607, -0.033752840012311935, -0.05949203297495842, -0.03601987659931183], [-0.02055967040359974, -0.023169931024312973, 0.19419077038764954, 0.13739541172981262, -0.21762363612651825, -0.06032506749033928, 0.14501503109931946, -0.0346747525036335, -0.07146573811769485, -0.04878247156739235], [-0.03788997605443001, -0.018705695867538452, 0.14305302500724792, 0.19200363755226135, -0.19052474200725555, -0.04565557464957237, 0.14861686527729034, -0.03608553111553192, -0.0934872180223465, -0.06132500618696213], [-0.05047448351979256, 0.00976466853171587, 0.10746943950653076, 0.17875917255878448, -0.182765930891037, -0.010072682984173298, 0.1488754004240036, -0.03747192770242691, -0.09300903975963593, -0.07107461988925934], [-0.0557553693652153, 0.010158204473555088, 0.10319237411022186, 0.14344088733196259, -0.15341287851333618, 0.0001604495628271252, 0.1406780332326889, -0.03260790929198265, -0.09084241837263107, -0.0650116503238678], [-0.07429090887308121, -0.035131823271512985, 0.04654286801815033, 0.1192689761519432, -0.11185415834188461, 0.04367552697658539, 0.1671801656484604, -0.02675952948629856, -0.07967106252908707, -0.04896032065153122], [-0.09988091140985489, -0.056447070091962814, -0.044106625020504, 0.09548765420913696, -0.07471025735139847, 0.08508018404245377, 0.19596543908119202, -0.021876418963074684, -0.049774087965488434, -0.02973788045346737], [-0.09618179500102997, -0.04730204492807388, -0.07477378100156784, 0.0657963827252388, -0.026345251128077507, 0.0746869370341301, 0.19945843517780304, -0.014072463847696781, -0.05659152939915657, -0.024675052613019943], [-0.06771664321422577, -0.04557936638593674, -0.08635550737380981, 0.044147737324237823, -0.004351533018052578, 0.06577025353908539, 0.15975740551948547, -0.010698260739445686, -0.03682238608598709, -0.018151745200157166], [-0.050398293882608414, -0.033095888793468475, -0.07017790526151657, -0.017069853842258453, -0.0007194535573944449, 0.04742272570729256, 0.1554858237504959, -0.006350927986204624, -0.014369899407029152, -0.010726338252425194], [-0.03486835956573486, -0.022091656923294067, -0.05702505260705948, -0.027048354968428612, -8.939618965086993e-07, 0.020779021084308624, 0.12940239906311035, -0.0029390351846814156, -0.001419554348103702, -0.004788466729223728], [-0.017914988100528717, -0.014245394617319107, -0.03934960812330246, -0.013465670868754387, 0.00257564103230834, -0.016392836347222328, 0.09741097688674927, -0.00134704215452075, 0.004941930994391441, -0.0022130135912448168], [-0.007633008528500795, -0.009675046429038048, -0.01138343196362257, -0.004621174186468124, -0.0029835884924978018, -0.01616707444190979, 0.05509481951594353, -0.0004370720125734806, -0.0015114174457266927, -0.0006829996127635241], [-0.002287709852680564, -0.002225639531388879, 0.0017969904001802206, -0.0003728948358912021, -0.0003580161137506366, 0.003973123151808977, 0.00011978551628999412, -1.872916254797019e-05, -0.0005564867751672864, -7.042515790089965e-05], [-0.0005021042888984084, -0.002735655987635255, -0.00019753655942622572, -1.990906457649544e-05, -9.886544285109267e-05, 0.0009774737991392612, 0.003326272824779153, -1.2135382121414295e-06, -0.0007436249870806932, -4.836096195504069e-06], [0.0, 0.0, 0.0, 0.0, 0.0, 0.0, 0.0, 0.0, 0.0, 0.0], [0.0, 0.0, 0.0, 0.0, 0.0, 0.0, 0.0, 0.0, 0.0, 0.0], [-1.9871245626745804e-07, -2.968461956243118e-07, -8.603491551184561e-06, 1.529739165562205e-05, -6.695015031255025e-07, -3.72729141417949e-06, -3.559333094926842e-07, -1.2343811306436692e-07, -1.2127899253755459e-06, -1.093745183311512e-07], [-1.67980670084944e-05, 0.00031108950497582555, -0.0002128183259628713, 0.00020531570771709085, -8.677026016812306e-06, -0.00016417138976976275, -0.00019677435921039432, -5.970120469100948e-07, 8.619511208962649e-05, -2.76418586508953e-06], [-4.982377868145704e-05, -2.2101778085925616e-05, -0.0008922917186282575, 0.0030358186922967434, -0.00023569694894831628, -0.00124235893599689, -0.0003237821802031249, 0.0001393255515722558, -0.0002950523339677602, -0.00011403571261325851], [-0.002597840502858162, 0.0005753446603193879, -0.007114328444004059, 0.013814494013786316, 0.0038156043738126755, -0.00881399866193533, 0.003218520898371935, -0.0006793540087528527, -0.0017797230975702405, -0.000438711722381413], [-0.018214818090200424, 0.005224213469773531, 0.008144130930304527, 0.056274671107530594, 0.00477918516844511, -0.036075420677661896, -0.002206506673246622, -0.006071052979677916, -0.008955531753599644, -0.002898853039368987], [-0.02360502816736698, -0.0025430654641240835, 0.03763529285788536, 0.08388365060091019, -0.007845412008464336, -0.052356936037540436, -0.004960901103913784, -0.007044464815407991, -0.017890797927975655, -0.005272426176816225], [-0.020372694358229637, -0.022361423820257187, 0.05121397227048874, 0.12428776174783707, -0.019684042781591415, -0.06617706269025803, 0.010623755864799023, -0.017589127644896507, -0.02815045416355133, -0.011790749616920948], [-0.019103750586509705, -0.04073803871870041, 0.10127344727516174, 0.17463339865207672, -0.05935840308666229, -0.11702197045087814, 0.04349101707339287, -0.0326552614569664, -0.02744894102215767, -0.02307138405740261], [-0.016456764191389084, -0.056334685534238815, 0.20193590223789215, 0.18952494859695435, -0.10318104177713394, -0.1220119372010231, 0.03200967237353325, -0.05490914732217789, -0.027031756937503815, -0.04354465752840042], [-0.024337314069271088, -0.0581190250813961, 0.23678889870643616, 0.23278431594371796, -0.16577774286270142, -0.09529540687799454, 0.04174724221229553, -0.08091490715742111, -0.0246527511626482, -0.06222359091043472], [-0.016161533072590828, -0.063665471971035, 0.2725142240524292, 0.2753185033798218, -0.19251716136932373, -0.0761089026927948, -0.010455477982759476, -0.10141510516405106, 0.002024989342316985, -0.0895339623093605], [-0.03388362377882004, 0.009421969763934612, 0.2718733847141266, 0.26722481846809387, -0.2109997421503067, -0.11004931479692459, -0.02680834010243416, -0.12150973081588745, 0.07922226935625076, -0.12449212372303009], [-0.015055659227073193, 0.10359487682580948, 0.19732260704040527, 0.2671349346637726, -0.19794578850269318, -0.14901170134544373, -0.019257990643382072, -0.1393480896949768, 0.09901037812232971, -0.14644354581832886], [-0.023561885580420494, 0.13062503933906555, 0.16843290627002716, 0.23164473474025726, -0.21776548027992249, -0.07357620447874069, -0.02469666674733162, -0.15385782718658447, 0.15287178754806519, -0.19011689722537994], [0.0013109883293509483, 0.09781090915203094, 0.1254841834306717, 0.2074539214372635, -0.2193482369184494, 0.053774017840623856, -0.022401468828320503, -0.15268126130104065, 0.12875713407993317, -0.22016006708145142], [-0.03941188007593155, 0.056457240134477615, 0.12613289058208466, 0.17860497534275055, -0.15608735382556915, 0.0862550437450409, 0.058066919445991516, -0.1449103057384491, 0.05877617746591568, -0.22388345003128052], [-0.030107880011200905, 0.009771592915058136, 0.08666814863681793, 0.09943070262670517, -0.11136018484830856, 0.11394640803337097, 0.13629141449928284, -0.12145958840847015, -0.009775319136679173, -0.17340543866157532], [-0.05899903178215027, -0.00516152149066329, 0.013688713312149048, 0.10122961550951004, -0.0723244771361351, 0.12791378796100616, 0.1637813299894333, -0.09710267931222916, -0.04197080060839653, -0.13105520606040955], [-0.07259342074394226, 0.0693177580833435, -0.06683532148599625, 0.02986125648021698, 0.004504430573433638, 0.0507761649787426, 0.2027888149023056, -0.07012476027011871, -0.04138769954442978, -0.1063074991106987], [-0.06053680181503296, 0.09341821074485779, -0.09652937948703766, -0.04071643203496933, 0.043832894414663315, -0.017844947054982185, 0.22231294214725494, -0.052425485104322433, -0.015469717793166637, -0.07604115456342697], [-0.060317475348711014, 0.09214619547128677, -0.13131770491600037, -0.0863664373755455, 0.045358821749687195, 0.07349302619695663, 0.2242537885904312, -0.03271609917283058, -0.06463368237018585, -0.059900637716054916], [-0.05027659982442856, 0.05474814400076866, -0.13073240220546722, -0.07772647589445114, 0.06126875802874565, 0.07617579400539398, 0.198575958609581, -0.022082367911934853, -0.07494805008172989, -0.035002972930669785], [-0.05201956257224083, 0.01685873605310917, -0.09547406435012817, -0.08074923604726791, 0.06375168263912201, 0.0950467512011528, 0.135498046875, -0.01050887443125248, -0.05644999071955681, -0.0159535501152277], [-0.041542988270521164, -0.028512826189398766, -0.045798275619745255, -0.02071738801896572, 0.03696742653846741, 0.07074249535799026, 0.046222932636737823, -0.00399207416921854, -0.0073696766048669815, -0.0059996540658175945], [-0.011865545064210892, -0.016438767313957214, -0.005901690572500229, -0.002392936497926712, 0.003963283728808165, 0.020188895985484123, 0.008528382517397404, -0.0009812475182116032, 0.006646947935223579, -0.0017473292537033558], [-0.0015617175959050655, -0.0019368595676496625, -0.0008235157001763582, -0.00011559276754269376, -0.0018336318898946047, 0.002381519880145788, 0.0006085136556066573, -0.00018956017447635531, 0.0039311968721449375, -0.0004603516426868737], [-2.7928730560233817e-05, -0.0008624891052022576, -0.0005624055047519505, -1.9045593944611028e-05, -0.00044265034375712276, -0.0004924162640236318, 0.0021447555627673864, -1.1291626833553892e-05, 0.00030609464738518, -3.262308018747717e-05], [0.0, 0.0, 0.0, 0.0, 0.0, 0.0, 0.0, 0.0, 0.0, 0.0], [0.0, 0.0, 0.0, 0.0, 0.0, 0.0, 0.0, 0.0, 0.0, 0.0], [-9.502872126176953e-05, 2.2921018171473406e-05, 7.47672384022735e-05, 0.0007458130130544305, -3.561393532436341e-05, -0.0006302587571553886, 4.836865628021769e-05, -9.472841156821232e-06, -0.00011415558401495218, -7.339598596445285e-06], [-0.0006993263959884644, 0.0012940173037350178, 0.0007325473125092685, 0.01645820029079914, 0.000326027802657336, -0.007607556879520416, -0.005531323608011007, -0.0002247502125101164, -0.0038375521544367075, -0.0009102777694351971], [-0.00811436865478754, 0.0018608649261295795, 0.0008405043045058846, 0.052368078380823135, 0.0056477682664990425, -0.03599722683429718, 0.0020080450922250748, -0.0028223292902112007, -0.011700741946697235, -0.004090605769306421], [-0.030042901635169983, 0.01000137161463499, 0.016524286940693855, 0.12428808957338333, 0.017938556149601936, -0.07082220166921616, -0.03216501325368881, 0.010316790081560612, -0.030580462887883186, -0.01545855775475502], [-0.031350065022706985, -0.015039578080177307, 0.05884251371026039, 0.1759156435728073, 0.022266298532485962, -0.10490019619464874, -0.030265653505921364, 0.008074426092207432, -0.04608717933297157, -0.03745606914162636], [-0.03974631056189537, -0.06209506466984749, 0.11847694218158722, 0.19285927712917328, 0.013283190317451954, -0.08810605108737946, -0.022435683757066727, -0.0022556278854608536, -0.04899334907531738, -0.060987308621406555], [-0.04452623054385185, -0.1190432608127594, 0.19610796868801117, 0.18337929248809814, -0.008394419215619564, -0.08126592636108398, 0.01879430189728737, -0.008830996230244637, -0.05171732231974602, -0.08450359106063843], [-0.04023407772183418, -0.1369156539440155, 0.23485614359378815, 0.18234720826148987, -0.024514757096767426, -0.013095280155539513, -0.008618840016424656, -0.0434272401034832, -0.031258754432201385, -0.11913911253213882], [0.0038354061543941498, -0.10087341070175171, 0.2505461573600769, 0.17386208474636078, -0.1010858565568924, 0.027613652870059013, -0.015842396765947342, -0.09839338809251785, -0.046539489179849625, -0.09312283247709274], [0.016470739617943764, -0.06575441360473633, 0.25029852986335754, 0.14453125, -0.13072878122329712, 0.030910464003682137, -0.1396169662475586, -0.15445144474506378, 0.07491325587034225, -0.02657274715602398], [0.027331607416272163, 0.003965660464018583, 0.22254818677902222, 0.09421571344137192, -0.15294471383094788, -0.019583554938435555, -0.11917252093553543, -0.1955004632472992, 0.1651381254196167, -0.02599845454096794], [0.11414722353219986, 0.07819240540266037, 0.21390804648399353, 0.08713119477033615, -0.18506991863250732, -0.0635426864027977, -0.14626580476760864, -0.2524077296257019, 0.16179539263248444, -0.007887929677963257], [0.1437017321586609, 0.10809190571308136, 0.1941038817167282, 0.06202451512217522, -0.10873791575431824, -0.08013346046209335, -0.0848214328289032, -0.29721930623054504, 0.17079126834869385, -0.10780123621225357], [0.1476675122976303, 0.09770762175321579, 0.2174217849969864, 0.10429777950048447, -0.07295629382133484, -0.06304987519979477, -0.09022075682878494, -0.3086402118206024, 0.1535758674144745, -0.18580374121665955], [0.13723626732826233, -0.02360043302178383, 0.24961255490779877, 0.13661716878414154, -0.01654849387705326, 0.01873079501092434, -0.06183747574687004, -0.2911780774593353, 0.1626294106245041, -0.31166207790374756], [0.18090084195137024, -0.06847205013036728, 0.21062645316123962, 0.0185347031801939, -0.019776877015829086, 0.0710068792104721, 0.012592936865985394, -0.2747834026813507, 0.17225976288318634, -0.3028898239135742], [0.13716091215610504, -0.010171455331146717, 0.12025470286607742, -8.67659691721201e-05, 0.04762226343154907, 0.07617794722318649, 0.10266724973917007, -0.2473822832107544, 0.042280346155166626, -0.26852351427078247], [0.041937317699193954, 0.0562303327023983, 0.00698663666844368, -0.01138128712773323, 0.08465218544006348, 0.04259636998176575, 0.16157054901123047, -0.22012053430080414, 0.06712781637907028, -0.22959943115711212], [-0.012700749561190605, 0.13630995154380798, -0.04907934367656708, -0.06916599720716476, 0.07260328531265259, 0.09780770540237427, 0.14579033851623535, -0.1819019913673401, 0.05308609828352928, -0.19274961948394775], [-0.0021559041924774647, 0.18972405791282654, -0.06593689322471619, -0.1408771425485611, 0.09023047238588333, 0.10950098186731339, 0.12436304986476898, -0.12190847843885422, -0.020272530615329742, -0.16266778111457825], [-0.02721160091459751, 0.1535697728395462, -0.10409820824861526, -0.1520095318555832, 0.14762946963310242, 0.18729479610919952, 0.1016644611954689, -0.08174281567335129, -0.08299421519041061, -0.14210182428359985], [-0.08335603773593903, 0.07726684957742691, -0.12136778980493546, -0.14284370839595795, 0.1838313490152359, 0.21464277803897858, 0.0991911068558693, -0.04658932238817215, -0.0872751921415329, -0.09350018948316574], [-0.07904534041881561, 0.010089880786836147, -0.07502832263708115, -0.05193101242184639, 0.07894548773765564, 0.16662997007369995, 0.043463028967380524, -0.017968961969017982, -0.032031018286943436, -0.043123774230480194], [-0.032660987228155136, -0.027083605527877808, -0.018033087253570557, -0.010829558596014977, 0.006598286796361208, 0.08283404260873795, -0.0006738796946592629, -0.005633560940623283, 0.01883639581501484, -0.013354086317121983], [-0.008801943622529507, -0.0038382529746741056, -0.003171919845044613, -0.0013669495237991214, -0.004285680595785379, 0.02332492545247078, 0.0028294818475842476, -0.0021673552691936493, -0.000537222542334348, -0.0019850938115268946], [-0.0018320450326427817, -0.0010448835091665387, -0.0008274969295598567, -6.242346717044711e-05, -0.00010032238787971437, 0.0015431889332830906, 0.00316801480948925, -7.608830492245033e-05, -0.0007397879962809384, -2.8156291591585614e-05], [0.0, 0.0, 0.0, 0.0, 0.0, 0.0, 0.0, 0.0, 0.0, 0.0], [-1.1581400940485764e-06, -9.239309406439133e-07, -5.174545549380127e-06, 7.551039743702859e-05, -3.8530640722456155e-07, -8.559345587855205e-06, -1.9870651613018708e-07, -2.541500407460262e-06, -6.525844128191238e-06, -5.004306513001211e-05], [-0.0003450819640420377, -0.0017368843546137214, -0.0012886746553704143, 0.0023173897061496973, -0.0007506454130634665, 3.029235449503176e-05, -0.0002654279232956469, 0.004203456919640303, -0.0009532800177112222, -0.001211141818203032], [-0.0017359937774017453, 0.001520887017250061, 0.0039657591842114925, 0.036774735897779465, -0.004852112848311663, -0.026788076385855675, -0.00872095301747322, 0.01712273433804512, -0.011002697981894016, -0.006284289062023163], [-0.014195017516613007, 0.00042924939771182835, 0.017026839777827263, 0.09350891411304474, 0.01183219812810421, -0.06688468158245087, -0.004116181284189224, 0.010733649134635925, -0.024274924769997597, -0.024060051888227463], [-0.02436237782239914, -0.018855642527341843, 0.04760081321001053, 0.15820488333702087, 0.04622235894203186, -0.09123443067073822, -0.035194821655750275, 0.0326521098613739, -0.04277102276682854, -0.07226225733757019], [-0.03513765335083008, -0.05104784294962883, 0.10931695997714996, 0.1915995478630066, 0.05653980374336243, -0.09540390223264694, -0.06006578728556633, 0.06292373687028885, -0.0635996162891388, -0.11512526869773865], [-0.04961807280778885, -0.10542436689138412, 0.1550164669752121, 0.147086039185524, 0.053634610027074814, -0.0427950955927372, -0.025390055030584335, 0.07808195799589157, -0.0469561368227005, -0.16363553702831268], [-0.06596557796001434, -0.17124293744564056, 0.16711020469665527, 0.15628281235694885, 0.007729325909167528, 0.005259152501821518, -0.025441313162446022, 0.10682982951402664, -0.00749215018004179, -0.17306961119174957], [-0.08071102201938629, -0.21405214071273804, 0.19393369555473328, 0.1802898794412613, -0.012017404660582542, 0.03486185148358345, -0.06729353964328766, 0.08960572630167007, 0.003429962322115898, -0.12804658710956573], [-0.009422981180250645, -0.16323941946029663, 0.14780177175998688, 0.16567066311836243, -0.08443867415189743, 0.06108824908733368, -0.12830084562301636, 0.09577950835227966, -0.014645836316049099, -0.07029248028993607], [0.018381355330348015, -0.09161631017923355, 0.06426646560430527, 0.10868655145168304, -0.16939134895801544, 0.04704193398356438, -0.14828649163246155, 0.08349833637475967, 0.05452817305922508, 0.03289114311337471], [0.03466105833649635, -0.07686823606491089, 0.061894796788692474, 0.10233598947525024, -0.18991240859031677, 0.013811884447932243, -0.12543989717960358, -0.009053578600287437, 0.10382325202226639, 0.08474685996770859], [0.11255143582820892, -0.07448486238718033, 0.08813508599996567, 0.1737307757139206, -0.24112947285175323, -0.002623070729896426, -0.17300531268119812, -0.12525703012943268, 0.0418102853000164, 0.20027193427085876], [0.1193532645702362, -0.08001206815242767, 0.09141743183135986, 0.14247457683086395, -0.2752109467983246, 0.03971344232559204, -0.15841005742549896, -0.1528061479330063, 0.05583217740058899, 0.217647522687912], [0.10706587880849838, -0.14783121645450592, 0.09070197492837906, 0.13623979687690735, -0.26534390449523926, -0.03836745768785477, -0.11798316985368729, -0.11992376297712326, 0.19840362668037415, 0.15703724324703217], [0.1488189995288849, -0.1837102472782135, 0.09747039526700974, 0.15170828998088837, -0.23221208155155182, -0.04055866599082947, -0.12867814302444458, -0.10317318886518478, 0.1370694786310196, 0.15326501429080963], [0.19758518040180206, -0.1905651092529297, 0.06157427653670311, 0.09073919802904129, -0.1639159917831421, 0.015974748879671097, -0.11019247025251389, -0.0979917049407959, 0.08812300115823746, 0.10866813361644745], [0.19876790046691895, -0.08700446784496307, 0.0293811596930027, 0.11156456917524338, -0.14463180303573608, 0.06234430521726608, -0.09940632432699203, -0.1356174498796463, -0.0155617231503129, 0.08016347140073776], [0.10783834755420685, -0.024123933166265488, -0.02646261639893055, -0.013546299189329147, -0.03250914812088013, 0.10460443049669266, -0.04901902750134468, -0.13683371245861053, 0.09976842999458313, -0.02971658855676651], [0.07213965058326721, 0.08254337310791016, -0.07077371329069138, 0.004601697437465191, -0.015946485102176666, 0.100446917116642, -0.029959186911582947, -0.11757990717887878, 0.06473125517368317, -0.09020376205444336], [0.11458387970924377, 0.0988178551197052, -0.07406093180179596, -0.04242933914065361, 0.07797058671712875, 0.08189783245325089, -0.034860000014305115, -0.07870986312627792, 0.015565917827188969, -0.15877605974674225], [0.09349273145198822, 0.07651466131210327, -0.10453002154827118, -0.14307110011577606, 0.2211144119501114, 0.1904411017894745, -0.03137192875146866, -0.08881131559610367, -0.002541865687817335, -0.21123692393302917], [-0.03622225299477577, 0.03250019624829292, -0.16054286062717438, -0.16150641441345215, 0.25738295912742615, 0.3086368143558502, -0.024098984897136688, -0.08005982637405396, 0.046800047159194946, -0.18289051949977875], [-0.11992785334587097, -0.016616657376289368, -0.08908667415380478, -0.07407285273075104, 0.10443733632564545, 0.3473154306411743, -0.018726209178566933, -0.04438583552837372, 0.014185306616127491, -0.10312216728925705], [-0.07380294054746628, -0.03157611936330795, -0.026487000286579132, -0.022168288007378578, 0.01231834851205349, 0.18949799239635468, -0.016131330281496048, -0.020596887916326523, 0.026923203840851784, -0.03797711059451103], [-0.029081717133522034, -0.003486082423478365, -0.0038142907433211803, -0.00316680152900517, 0.007041876204311848, 0.0638485923409462, -0.010495400056242943, -0.006891416385769844, -0.003328176913782954, -0.01062660850584507], [-0.005932656116783619, -0.00013634430069942027, -0.0001357069268124178, -0.000127718536532484, -0.0004182083357591182, 0.009464474394917488, -0.0005297759198583663, -0.00045154831605032086, -0.0013096833135932684, -0.0004228391917422414], [0.0, 0.0, 0.0, 0.0, 0.0, 0.0, 0.0, 0.0, 0.0, 0.0], [-0.00010269936319673434, -0.00011595026444410905, -0.00021247258700896055, 0.00227882107719779, -0.00013304546882864088, -0.0003415146784391254, -2.7270059945294634e-05, 0.0009551814291626215, -0.0006528131198137999, -0.0016482368810102344], [-0.0004937116173096001, -0.0013251001946628094, 0.0025692072231322527, 0.0005840109661221504, -0.0013945559039711952, -0.005285895429551601, -0.000991511857137084, 0.013421094976365566, -0.002310478361323476, -0.004773054271936417], [-0.0031734902877360582, -0.0023771701380610466, 0.00877291988581419, 0.03892425075173378, -0.002104637213051319, -0.03872612863779068, -0.012109723873436451, 0.04466787353157997, -0.011235715821385384, -0.02263816073536873], [-0.0235318373888731, -0.005994580686092377, 0.05263366922736168, 0.1531398743391037, 0.020594056695699692, -0.13160088658332825, -0.010654676705598831, 0.035421501845121384, -0.020380783826112747, -0.06962639838457108], [-0.027853799983859062, -0.041033677756786346, 0.08052573353052139, 0.21523018181324005, 0.060207005590200424, -0.14159348607063293, -0.04438726231455803, 0.07509394735097885, -0.029561534523963928, -0.14662711322307587], [-0.04007083550095558, -0.08860424160957336, 0.159536674618721, 0.16903316974639893, 0.04360229894518852, -0.09812567383050919, -0.08088188618421555, 0.1389675736427307, -0.017718655988574028, -0.18573854863643646], [-0.06379387527704239, -0.13290734589099884, 0.12014187127351761, 0.09349170327186584, 0.04182567074894905, 0.005851292051374912, -0.03361200913786888, 0.16550090909004211, 0.02855871245265007, -0.22505700588226318], [-0.09521252661943436, -0.2221728414297104, 0.12373628467321396, 0.0669887363910675, -0.01904289983212948, 0.08851733058691025, -0.04386722296476364, 0.18613572418689728, 0.06414009630680084, -0.14922234416007996], [-0.029364366084337234, -0.23798835277557373, 0.07381624728441238, 0.07506012916564941, -0.06031147390604019, 0.0789516493678093, -0.09072738140821457, 0.2215360701084137, 0.02503333054482937, -0.05600582808256149], [0.014334157109260559, -0.21076814830303192, 0.021329110488295555, 0.05248662829399109, -0.13919858634471893, 0.1259784698486328, -0.14144261181354523, 0.24687008559703827, 0.02921377681195736, 0.0011969986371695995], [0.0458022803068161, -0.17888228595256805, 0.0441109798848629, 0.06063484400510788, -0.2139386534690857, 0.11904606968164444, -0.12884412705898285, 0.2238709181547165, -0.0468856617808342, 0.07508550584316254], [0.044432464987039566, -0.1174597293138504, 0.018967317417263985, 0.11812439560890198, -0.3147881031036377, 0.041293103247880936, -0.14444100856781006, 0.17626214027404785, -0.02911464311182499, 0.20672394335269928], [0.0673072338104248, -0.12798333168029785, 0.08411563187837601, 0.12701129913330078, -0.30414363741874695, -0.03441784530878067, -0.18340349197387695, 0.08627539873123169, -0.03542559593915939, 0.3206643760204315], [0.07273110002279282, -0.14134778082370758, 0.059453289955854416, 0.1793806105852127, -0.38868334889411926, 0.042555712163448334, -0.16242505609989166, -0.0029737548902630806, -0.1030835285782814, 0.4443936049938202], [0.08481805771589279, -0.21548548340797424, 0.003388740820810199, 0.1751091033220291, -0.42033785581588745, -0.062202926725149155, -0.148465096950531, 0.03384816646575928, 0.06298986077308655, 0.4863375127315521], [0.1339675933122635, -0.19947290420532227, -0.02155090495944023, 0.0747499167919159, -0.3898751139640808, 0.021267252042889595, -0.20578597486019135, 0.11457375437021255, 0.03942963853478432, 0.4326957166194916], [0.20328252017498016, -0.16334277391433716, -0.11231160908937454, 0.09899076819419861, -0.26051783561706543, 0.07172327488660812, -0.21225497126579285, 0.1661331206560135, -0.05592486262321472, 0.26422205567359924], [0.19359293580055237, -0.13168840110301971, -0.06921278685331345, 0.051943302154541016, -0.21704290807247162, 0.0759592205286026, -0.24441760778427124, 0.15924233198165894, 0.02900771051645279, 0.15261583030223846], [0.12401711940765381, -0.030334481969475746, -0.03937269374728203, 0.06596990674734116, -0.12339311838150024, 0.10156852751970291, -0.24097974598407745, 0.09640565514564514, -0.012890662997961044, 0.059009335935115814], [0.051587626338005066, 0.022589124739170074, -0.059588514268398285, 0.05553215369582176, -0.09306921809911728, 0.08876606076955795, -0.2003951221704483, 0.08219121396541595, 0.03423304110765457, 0.01815338432788849], [0.07709615677595139, -0.0028327149339020252, -0.02833712100982666, -0.008459851145744324, 0.016677534207701683, 0.10164900124073029, -0.18061934411525726, 0.014780318364501, 0.07772061973810196, -0.06767471134662628], [0.11817894876003265, -0.02185077592730522, -0.02889946661889553, -0.1060023307800293, 0.16694732010364532, 0.16699570417404175, -0.17627166211605072, -0.0020513192284852266, 0.07714524120092392, -0.19419153034687042], [0.050591450184583664, -0.06280764937400818, -0.169812873005867, -0.17266616225242615, 0.2046956866979599, 0.3580021262168884, -0.13262951374053955, -0.03790746256709099, 0.17609502375125885, -0.21356146037578583], [-0.08583319932222366, -0.09985403716564178, -0.120842844247818, -0.11261150985956192, 0.07191479951143265, 0.46671101450920105, -0.04713188856840134, -0.05474388226866722, 0.127043679356575, -0.14465229213237762], [-0.0916910395026207, -0.054040346294641495, -0.03519778698682785, -0.02913697622716427, 0.0012221593642607331, 0.3305531144142151, -0.03764290362596512, -0.03572196513414383, 0.012095199897885323, -0.06043941155076027], [-0.03216139227151871, -0.00388412456959486, -0.005041657947003841, -0.0030118089634925127, 0.005365327000617981, 0.07871996611356735, -0.011912508867681026, -0.007459602784365416, -0.004931415431201458, -0.015682749450206757], [-0.002324191387742758, -0.0012712938478216529, -0.0002583043824415654, -0.00015464193711522967, -0.0005227536894381046, 0.007498986553400755, -0.0019391297828406096, -0.00036621722392737865, -6.525315984617919e-05, -0.0005972006474621594], [0.0018384763970971107, -7.230381129375019e-07, -5.371244333218783e-05, -6.575443762812938e-07, -7.310943328775465e-05, -2.6936309041047934e-06, -9.884232895274181e-06, -0.0010415969882160425, -8.163677193806507e-06, -0.0006479355506598949], [-0.0002113332593580708, -0.00013066260726191103, 0.0007424367358908057, -0.0009508603834547102, -0.0027046052273362875, -0.0004705311730504036, -0.00011030313180526718, 0.010791552253067493, -0.0008407011046074331, -0.00611499510705471], [-0.0008607568452134728, -0.0007185415015555918, 0.0025175027549266815, -0.0019876607693731785, -0.0023742096964269876, -0.007338711526244879, -0.001427040551789105, 0.0342426635324955, -0.004131597001105547, -0.017921652644872665], [-0.005536362528800964, -0.0018071798840537667, 0.010371020063757896, 0.041662413626909256, -0.00784192606806755, -0.046963371336460114, -0.01343625783920288, 0.09116935729980469, -0.008898456580936909, -0.058719199150800705], [-0.03839258477091789, -0.011625416576862335, 0.06247576326131821, 0.17170387506484985, 0.004281059838831425, -0.17153391242027283, -0.01757102459669113, 0.11266794800758362, -0.001913366373628378, -0.11009257286787033], [-0.049827177077531815, -0.04044339433312416, 0.08878204971551895, 0.1831301748752594, 0.04134482890367508, -0.16289347410202026, -0.06867735832929611, 0.1385224610567093, 0.028618156909942627, -0.15855634212493896], [-0.054735682904720306, -0.09402737766504288, 0.11038833111524582, 0.12701493501663208, 0.006044481880962849, -0.10669694095849991, -0.09889534115791321, 0.16006481647491455, 0.0897204652428627, -0.13887779414653778], [-0.07269421219825745, -0.13681791722774506, 0.09461526572704315, 0.0624481700360775, -0.0110415518283844, -0.030584068968892097, -0.06611146777868271, 0.21379180252552032, 0.1200062707066536, -0.17361244559288025], [-0.05588149651885033, -0.22139357030391693, 0.07841526716947556, 0.029596704989671707, -0.0822867751121521, 0.09197894483804703, -0.06988200545310974, 0.1782221794128418, 0.06586290895938873, -0.014632328413426876], [0.015126306563615799, -0.263232946395874, 0.0680755078792572, 0.027979478240013123, -0.040379032492637634, 0.06833095103502274, -0.0992015078663826, 0.15254200994968414, 0.1095668375492096, -0.0388077013194561], [0.02430790290236473, -0.24324865639209747, 0.15998263657093048, 0.03313476964831352, -0.13536414504051208, 0.10423681885004044, -0.14322587847709656, 0.16122762858867645, 0.06140653043985367, -0.022457538172602654], [0.020818669348955154, -0.18903110921382904, 0.12187616527080536, -0.0019609802402555943, -0.1633896380662918, 0.12440234422683716, -0.12678755819797516, 0.23592747747898102, 0.018214648589491844, -0.0400700606405735], [0.05847649648785591, -0.10698100179433823, 0.05849688500165939, 0.025231072679162025, -0.226120725274086, 0.02664063684642315, -0.1525372862815857, 0.24123576283454895, 0.12466232478618622, -0.049104757606983185], [0.04047010838985443, -0.046802181750535965, 0.05727732926607132, 0.0666937381029129, -0.23586751520633698, -0.05779137462377548, -0.19513577222824097, 0.13833259046077728, 0.10740293562412262, 0.12542012333869934], [0.0990699902176857, -0.02659282088279724, 0.10782670229673386, 0.1678941249847412, -0.40389394760131836, -0.09605306386947632, -0.2143363207578659, 0.16994264721870422, -0.08725409209728241, 0.2833966910839081], [0.15852417051792145, 0.005972027312964201, 0.08251912891864777, 0.18707013130187988, -0.42824018001556396, -0.16044214367866516, -0.24551230669021606, 0.22137194871902466, -0.08027105033397675, 0.2590087056159973], [0.2628893554210663, -0.08322113752365112, 0.014442929066717625, 0.11286520957946777, -0.3488241732120514, -0.10111161321401596, -0.29945629835128784, 0.25904810428619385, 0.021323561668395996, 0.16204386949539185], [0.2360924929380417, -0.011501998640596867, -0.03208472579717636, 0.1208270788192749, -0.19484269618988037, -0.045667894184589386, -0.3502398729324341, 0.251179963350296, -0.02244260534644127, 0.04867978394031525], [0.1808931976556778, -0.07008207589387894, -0.06605573743581772, 0.15395058691501617, -0.10275830328464508, -0.02247026190161705, -0.4272363483905792, 0.2568122446537018, 0.04911474511027336, 0.047832172363996506], [0.11859536916017532, -0.07001267373561859, 0.027213074266910553, 0.11750951409339905, -0.07886077463626862, 0.04092931002378464, -0.3910750448703766, 0.1647033989429474, 0.08780436217784882, -0.01680726557970047], [0.08504179120063782, -0.09712127596139908, -0.013730747625231743, 0.14031535387039185, -0.06842808425426483, 0.10723365843296051, -0.3049153983592987, 0.13343776762485504, 0.05371639132499695, -0.03554938733577728], [0.060929350554943085, -0.12682168185710907, -0.02629919722676277, 0.0990043357014656, -0.021077370271086693, 0.12284527719020844, -0.2556960880756378, 0.038576867431402206, 0.10089528560638428, 0.007643135730177164], [0.14658313989639282, -0.15552273392677307, -0.048355404287576675, 0.013701866380870342, 0.0405166819691658, 0.17738847434520721, -0.25199687480926514, 0.0463792122900486, 0.16165395081043243, -0.1303490549325943], [0.15649931132793427, -0.1843552589416504, -0.10493899881839752, -0.1974085420370102, 0.06671551614999771, 0.45977914333343506, -0.203322634100914, -0.01432237308472395, 0.20971597731113434, -0.1883622109889984], [-0.027798615396022797, -0.15370304882526398, -0.1390375792980194, -0.1397995948791504, 0.004283886402845383, 0.6284496188163757, -0.11869887262582779, -0.07620304077863693, 0.15764613449573517, -0.13513922691345215], [-0.09396852552890778, -0.06693781912326813, -0.05023224651813507, -0.03656795620918274, -0.018664048984646797, 0.42078396677970886, -0.06117378920316696, -0.04753110930323601, 0.018815170973539352, -0.06452356278896332], [-0.0279194638133049, -0.00675584189593792, -0.006330700591206551, -0.0035051715094596148, -0.017052484676241875, 0.10462281107902527, -0.026179661974310875, -0.011638239026069641, 0.009192942641675472, -0.014434137381613255], [-0.0015768285375088453, -0.0009639706695452332, -0.0004686053143814206, -5.984901144984178e-05, -0.0007154842605814338, 0.006102398037910461, -0.0021454908419400454, -0.0017481149407103658, 0.002525478135794401, -0.0009495337144471705], [-6.577766725968104e-06, -5.1411966524028685e-06, -5.385600616136799e-06, -5.178352148504928e-05, -0.00021706032566726208, -3.167414979543537e-05, -7.67858546169009e-06, 0.000800811336375773, -2.3764174329699017e-05, -0.0004517461056821048], [-0.00033686848473735154, -7.831349648768082e-05, -0.00027162738842889667, -0.0010995528427883983, -0.003351750550791621, -0.0006428014021366835, -0.00015989490202628076, 0.01546404417604208, -0.0007781771710142493, -0.008745061233639717], [-0.0010630732867866755, -0.0006876143743284047, 0.0019168072612956166, 0.00312716793268919, -0.005866375286132097, -0.00455876300111413, -0.0022065509110689163, 0.043606169521808624, -0.0074945613741874695, -0.026773246005177498], [-0.00692096259444952, -0.00252256216481328, 0.016802091151475906, 0.0479886457324028, -0.03350148722529411, -0.04967299476265907, -0.0188687015324831, 0.12764932215213776, -0.011642206460237503, -0.06931129097938538], [-0.03933484107255936, -0.01716046966612339, 0.05495539307594299, 0.15766438841819763, -0.04424847289919853, -0.14317379891872406, -0.025810949504375458, 0.1779785305261612, 0.01577405259013176, -0.13664375245571136], [-0.052446283400058746, -0.05827778950333595, 0.11644846200942993, 0.11398375034332275, -0.020445775240659714, -0.14609618484973907, -0.08646171540021896, 0.1576908379793167, 0.07337695360183716, -0.09777194261550903], [-0.06274659931659698, -0.08993783593177795, 0.06108679994940758, 0.06694546341896057, -0.06339007616043091, -0.05841401219367981, -0.09483153373003006, 0.11206372082233429, 0.13288234174251556, -0.003658141940832138], [-0.06391296535730362, -0.11210925132036209, 0.010154986754059792, 0.01483212597668171, -0.055957548320293427, 0.04211387038230896, -0.03522145003080368, 0.08016599714756012, 0.1374930441379547, -0.017558742314577103], [-0.042899951338768005, -0.1747245043516159, -0.021688520908355713, -0.03854680433869362, -0.05213053897023201, 0.14586593210697174, -0.036415137350559235, 0.047668036073446274, 0.13710854947566986, 0.03576323017477989], [0.007462532725185156, -0.22448943555355072, 0.058587465435266495, -0.08571307361125946, -0.016984615474939346, 0.12024973332881927, -0.09775963425636292, 0.050853144377470016, 0.17463551461696625, 0.013158025220036507], [0.03519802168011665, -0.19659559428691864, 0.13112865388393402, -0.17246326804161072, -0.08672934025526047, 0.17635582387447357, -0.12290134280920029, 0.041022952646017075, 0.13997989892959595, 0.05500352382659912], [-0.01978132873773575, -0.1259397268295288, 0.08249442279338837, -0.2867841422557831, -0.08915481716394424, 0.2574385702610016, -0.10341358184814453, 0.12034162878990173, 0.1266046017408371, 0.03819438815116882], [0.02570401132106781, -0.07237586379051208, 0.040937550365924835, -0.24026954174041748, -0.0715446025133133, 0.15948159992694855, -0.1391637772321701, 0.17309927940368652, 0.094167560338974, 0.029964040964841843], [0.1040218397974968, 0.04757745936512947, 0.049052394926548004, -0.07272934168577194, -0.17166338860988617, 0.01067773625254631, -0.18964532017707825, 0.1559458076953888, 0.015998365357518196, 0.050764333456754684], [0.061570778489112854, 0.1925462782382965, 0.10805678367614746, 0.1769830733537674, -0.47629207372665405, -0.1382042020559311, -0.15448136627674103, 0.2584574818611145, -0.1764184832572937, 0.14778217673301697], [0.040352873504161835, 0.2888725996017456, 0.13779133558273315, 0.2798405885696411, -0.38389715552330017, -0.25824064016342163, -0.2760012745857239, 0.31869420409202576, -0.28684893250465393, 0.1394360065460205], [0.14412209391593933, 0.10843424499034882, 0.12707531452178955, 0.21525698900222778, -0.12272543460130692, -0.27392882108688354, -0.3917105495929718, 0.3553400933742523, -0.15945042669773102, -0.0024141359608620405], [0.22214791178703308, 0.006587073672562838, 0.042105600237846375, 0.1564854383468628, -0.0324762798845768, -0.19616656005382538, -0.4756726026535034, 0.32910051941871643, -0.04247279837727547, -0.009638676419854164], [0.2175067663192749, -0.08847641944885254, 0.04156091809272766, 0.1218184381723404, -0.014984942972660065, -0.11563563346862793, -0.4746650159358978, 0.23973529040813446, 0.039871908724308014, 0.03326858580112457], [0.1817052662372589, -0.15717333555221558, 0.01448084693402052, 0.14527541399002075, -0.03457173705101013, -0.045763205736875534, -0.4147755801677704, 0.22953397035598755, 0.09463141113519669, -0.013343504630029202], [0.10235561430454254, -0.20113100111484528, -0.027049483731389046, 0.21932993829250336, -0.04011797904968262, 0.04068052023649216, -0.3108782470226288, 0.1419612318277359, 0.08400002121925354, -0.009150564670562744], [0.04219944402575493, -0.22175517678260803, -0.05267374590039253, 0.15581023693084717, -0.035718586295843124, 0.17406821250915527, -0.2479674518108368, 0.13870854675769806, 0.11175906658172607, -0.06443078815937042], [0.12478195875883102, -0.2335585653781891, -0.029938939958810806, 0.05013550445437431, -0.0385252982378006, 0.2595916986465454, -0.26152631640434265, 0.06908819824457169, 0.17182907462120056, -0.1118774563074112], [0.21958714723587036, -0.2107032835483551, -0.10723093897104263, -0.12602421641349792, -0.0682230293750763, 0.5050919055938721, -0.18531396985054016, -0.048210885375738144, 0.18801508843898773, -0.16698837280273438], [0.04526638612151146, -0.13703615963459015, -0.13480786979198456, -0.11468052119016647, -0.1325858235359192, 0.7314420342445374, -0.1364295929670334, -0.072353295981884, 0.07642268389463425, -0.12523768842220306], [-0.09165863692760468, -0.05660053715109825, -0.0438213050365448, -0.02614864706993103, -0.08680541068315506, 0.5022488236427307, -0.09386742115020752, -0.03502264991402626, -0.009516780264675617, -0.05880725011229515], [-0.02796950377523899, -0.006732031237334013, -0.0049188509583473206, -0.0040131439454853535, -0.0254470594227314, 0.10992777347564697, -0.03446261212229729, -0.0058104507625103, 0.01667858473956585, -0.017252691090106964], [-0.0007754855905659497, -0.0008356053731404245, -0.0005357149057090282, -0.00018235018069390208, -0.002415495226159692, 0.008167446590960026, -0.002284680027514696, 0.00590710761025548, -0.005658634472638369, -0.0013865911168977618], [-1.0524497156438883e-05, -6.100733116909396e-06, -8.852221071720123e-06, -7.776314305374399e-05, -0.00025735056260600686, -4.195316796540283e-05, -9.40500194701599e-06, 0.00113733543548733, -3.13191776513122e-05, -0.0006940673338249326], [-0.0004444055666681379, -6.476321868831292e-05, -0.00020460443920455873, -0.0012794851791113615, -0.00327101768925786, -0.0007666745805181563, -0.00019039191829506308, 0.016474032774567604, -0.0005632516113109887, -0.00968942791223526], [0.002367990557104349, -0.0005577112315222621, 0.0012550184037536383, 0.0010358799481764436, -0.012039252556860447, -0.00460592657327652, -0.005208291113376617, 0.057242102921009064, -0.006512039341032505, -0.032977744936943054], [-0.011769711039960384, -0.007389923557639122, 0.02109762653708458, 0.05900482088327408, -0.0398106649518013, -0.03943866863846779, -0.01971140317618847, 0.12438184767961502, -0.020981959998607635, -0.06538218259811401], [-0.03769354522228241, -0.016071340069174767, -0.003493914846330881, 0.07297196984291077, -0.04960038512945175, -0.07435765117406845, -0.03666086494922638, 0.1875627636909485, 0.0516936220228672, -0.0943504348397255], [-0.045607730746269226, -0.05547313019633293, 0.041978973895311356, 0.0014024513075128198, -0.06459206342697144, -0.06648658215999603, -0.07348751276731491, 0.17097562551498413, 0.08722911030054092, 0.004060857929289341], [-0.05581288039684296, -0.09841786324977875, 0.02195598930120468, -0.07271716743707657, -0.09284953027963638, 0.027345184236764908, -0.061108753085136414, 0.07150134444236755, 0.15129993855953217, 0.10880386829376221], [-0.04485265910625458, -0.11066503077745438, -0.11115077137947083, -0.1554861217737198, -0.044232018291950226, 0.137658029794693, 0.011882457882165909, 0.043659649789333344, 0.18991416692733765, 0.08327218145132065], [-0.03158534690737724, -0.1366184800863266, -0.11291378736495972, -0.25760528445243835, 0.009960205294191837, 0.2184092253446579, 0.014969942159950733, -0.04058101028203964, 0.18462316691875458, 0.1513410061597824], [-0.0004220897099003196, -0.18293465673923492, -0.1287042796611786, -0.33480992913246155, 0.10154328495264053, 0.2549290955066681, -0.05442636460065842, 0.02270982600748539, 0.22430549561977386, 0.09780970215797424], [-0.04151685908436775, -0.14033378660678864, -0.1121232733130455, -0.39655187726020813, 0.05616568401455879, 0.2349979430437088, -0.028468817472457886, 0.04507667198777199, 0.2328900843858719, 0.1498645693063736], [0.0018472522497177124, -0.08616819977760315, -0.1350238025188446, -0.4275652766227722, 0.05364987626671791, 0.26485323905944824, -0.05425500124692917, 0.014002217911183834, 0.18435177206993103, 0.184307262301445], [0.024898754432797432, -0.030882885679602623, -0.18870119750499725, -0.3324877917766571, 0.11392993479967117, 0.26946163177490234, -0.10250166058540344, 0.008690964430570602, 0.1412888914346695, 0.09630385786294937], [0.04775092005729675, 0.1512427031993866, -0.22834725677967072, -0.002291642129421234, -0.1980525255203247, 0.16749276220798492, -0.06265246868133545, 0.15579922497272491, 0.0480845682322979, -0.0790262371301651], [-0.03258815407752991, 0.4162905812263489, -0.10795927047729492, 0.20678260922431946, -0.5322736501693726, 0.03901808336377144, -0.1695876121520996, 0.27467936277389526, -0.0681309700012207, -0.026231352239847183], [-0.11782225221395493, 0.48583176732063293, -0.07663596421480179, 0.2289518564939499, -0.2175655961036682, -0.0955236554145813, -0.33910050988197327, 0.4018669128417969, -0.21622489392757416, -0.05377825349569321], [-0.06886739283800125, 0.18188132345676422, 0.01269738283008337, 0.21466711163520813, 0.01795446313917637, -0.1857413351535797, -0.3959851861000061, 0.47873806953430176, -0.24129320681095123, -0.01405058242380619], [0.10518591850996017, -0.001300484873354435, 0.042771849781274796, 0.17223772406578064, 0.07045675069093704, -0.26273563504219055, -0.3989618718624115, 0.34876498579978943, -0.1308673620223999, 0.054448243230581284], [0.17245781421661377, -0.1426287144422531, 0.050805576145648956, 0.15826040506362915, -0.024797147139906883, -0.24550333619117737, -0.37203213572502136, 0.28147774934768677, 0.060099877417087555, 0.0618596188724041], [0.1389080435037613, -0.18130134046077728, 0.003599739633500576, 0.1926378756761551, -0.004451770801097155, -0.19359144568443298, -0.33094432950019836, 0.2573375999927521, 0.09520553052425385, 0.0225998368114233], [0.12583445012569427, -0.2376253455877304, -0.029726194217801094, 0.22592517733573914, -0.09623140841722488, -0.09133419394493103, -0.23097561299800873, 0.2283315509557724, 0.050561580806970596, 0.05523988604545593], [0.09268230944871902, -0.22149841487407684, -0.046256642788648605, 0.10088197886943817, -0.09014154225587845, -0.0027359547093510628, -0.17667903006076813, 0.21364222466945648, 0.10824146121740341, 0.021863529458642006], [0.18520376086235046, -0.19520044326782227, -0.0478069968521595, -0.009214576333761215, -0.11068489402532578, 0.07083233445882797, -0.15077075362205505, 0.10177075862884521, 0.180871844291687, -0.02500150538980961], [0.2764025926589966, -0.15995168685913086, -0.09398114681243896, -0.08416653424501419, -0.1876121610403061, 0.30833110213279724, -0.08492837101221085, -0.07127007842063904, 0.18096646666526794, -0.0837903842329979], [0.10708923637866974, -0.10607689619064331, -0.09330222755670547, -0.07552670687437057, -0.1531819999217987, 0.5635610818862915, -0.10376766324043274, -0.06996012479066849, 0.04234085977077484, -0.11117568612098694], [-0.07984142005443573, -0.03695385158061981, -0.027573002502322197, -0.015565627254545689, -0.09271783381700516, 0.4627673625946045, -0.10379494726657867, -0.02669687755405903, -0.027505410835146904, -0.05211843177676201], [-0.030950073152780533, -0.00784488394856453, -0.0002447009610477835, -0.0024806344881653786, -0.02509957179427147, 0.11790972203016281, -0.03320066258311272, -0.005209106951951981, 0.0028629491571336985, -0.015743030235171318], [-0.0004320132138673216, 4.235579035594128e-05, -0.0003445096081122756, -6.379980914061889e-05, -0.0007184300338849425, 0.00436374032869935, -0.0048479060642421246, 0.0007987547433003783, 0.003498113015666604, -0.002296305727213621], [-2.4158554879250005e-05, -7.851086593291257e-06, -1.4951111552363727e-05, -6.262899842113256e-05, -7.239382102852687e-05, -4.8519061238039285e-05, -1.605299075890798e-05, 0.0007063412922434509, -2.7630247132037766e-05, -0.0004321554151829332], [0.0008062560809776187, 0.00012418114056345075, -0.0002567053015809506, -0.0014190180227160454, -0.0063446587882936, -0.002585567533969879, -0.00032859062775969505, 0.023871079087257385, -0.0007680368144065142, -0.013098950497806072], [-0.002583982888609171, -0.000305179157294333, -0.001455359160900116, 0.0003036541456822306, -0.029223689809441566, -0.0068413978442549706, -0.001205640030093491, 0.09088636189699173, -0.004792860709130764, -0.044781897217035294], [-0.012690143659710884, -0.004950785543769598, -0.005757960956543684, 0.0414101742208004, -0.03647761419415474, -0.03613211587071419, -0.019208241254091263, 0.14174588024616241, -0.011030550114810467, -0.056908514350652695], [-0.06732088327407837, -0.008431822061538696, -0.0477747917175293, 0.018559332937002182, -0.06689039617776871, -0.03239990770816803, -0.029073551297187805, 0.19994322955608368, 0.03484209254384041, -0.0014532806817442179], [-0.06407534331083298, -0.032434191554784775, -0.10233253985643387, -0.10266054421663284, -0.0604584664106369, 0.003618963062763214, -0.024925416335463524, 0.12792561948299408, 0.11775705218315125, 0.13758458197116852], [-0.01910349167883396, -0.08255018293857574, -0.20920222997665405, -0.21482892334461212, -0.026621825993061066, 0.1304537057876587, -0.005834475625306368, 0.05397048965096474, 0.17878815531730652, 0.1949285864830017], [0.0068474034778773785, -0.10822020471096039, -0.3136579990386963, -0.3361043632030487, 0.032378748059272766, 0.1520601511001587, 0.07692871987819672, 0.06218710169196129, 0.26116353273391724, 0.16641606390476227], [-0.010419328697025776, -0.13290809094905853, -0.33281758427619934, -0.374096542596817, 0.12982964515686035, 0.1661810427904129, 0.04732417315244675, -0.0042800274677574635, 0.24574410915374756, 0.2654430866241455], [-0.052655428647994995, -0.17799349129199982, -0.354593962430954, -0.34046512842178345, 0.2136533558368683, 0.15290705859661102, 0.05545736476778984, 0.08370119333267212, 0.26148733496665955, 0.1585012525320053], [-0.04150790348649025, -0.17524822056293488, -0.44435304403305054, -0.28464874625205994, 0.24905303120613098, 0.15531624853610992, 0.041112277656793594, 0.10373037308454514, 0.18198008835315704, 0.21456602215766907], [-0.019220832735300064, -0.17516356706619263, -0.4653349220752716, -0.20411331951618195, 0.24184054136276245, 0.21367794275283813, 0.012281631119549274, 0.06756561249494553, 0.12716878950595856, 0.20129871368408203], [-0.0195607952773571, -0.07951469719409943, -0.5254287719726562, -0.08528798073530197, 0.22912226617336273, 0.29618212580680847, 0.062296099960803986, -0.01785406470298767, 0.1633983552455902, -0.02335250936448574], [-0.04821828380227089, 0.18906906247138977, -0.5372740030288696, 0.11995352804660797, -0.3042868673801422, 0.34374773502349854, 0.04789438843727112, 0.03860974684357643, 0.24879369139671326, -0.09828904271125793], [-0.2512210011482239, 0.5709215402603149, -0.39996275305747986, 0.18254975974559784, -0.46160680055618286, 0.12128343433141708, -0.18884098529815674, 0.1687045395374298, 0.26664313673973083, -0.008471366949379444], [-0.3940124213695526, 0.5553040504455566, -0.28203830122947693, 0.18785052001476288, -0.013804731890559196, -0.06849143654108047, -0.37391698360443115, 0.3285019099712372, -0.02401968091726303, 0.08462738990783691], [-0.3602369725704193, 0.16138212382793427, -0.1350640505552292, 0.10410471260547638, 0.25661295652389526, -0.15267619490623474, -0.28176161646842957, 0.398414671421051, -0.1500748246908188, 0.15929953753948212], [-0.11896637082099915, -0.04802552983164787, -0.14174753427505493, 0.16303479671478271, 0.1249057799577713, -0.20328952372074127, -0.25353845953941345, 0.32476192712783813, -0.1136801689863205, 0.26654502749443054], [0.001411760924383998, -0.1004948541522026, -0.05332716926932335, 0.1535937786102295, -0.027905821800231934, -0.22902964055538177, -0.21161189675331116, 0.2995493412017822, -0.05072731524705887, 0.21854130923748016], [0.0955309197306633, -0.16224250197410583, 0.05166012421250343, 0.1536867767572403, -0.047491949051618576, -0.3337065577507019, -0.17894479632377625, 0.1817190796136856, 0.018160926178097725, 0.22162728011608124], [0.11122195422649384, -0.16728822886943817, -0.028110522776842117, 0.13801142573356628, -0.11007732897996902, -0.4062570035457611, -0.10245442390441895, 0.18389153480529785, 0.06524720042943954, 0.31581613421440125], [0.143291637301445, -0.13542206585407257, -0.02906416915357113, -0.0490187332034111, -0.10418122261762619, -0.3645628094673157, -0.004426419269293547, 0.16707773506641388, 0.1496204435825348, 0.22668513655662537], [0.22498348355293274, -0.10230829566717148, -0.07335632294416428, -0.08848219364881516, -0.1360740065574646, -0.3288891911506653, 0.052695583552122116, 0.08394138514995575, 0.24389807879924774, 0.1235908567905426], [0.28745555877685547, -0.0747717022895813, -0.09728343039751053, -0.0912165492773056, -0.16796621680259705, -0.11873447149991989, 0.10669529438018799, -0.055444881319999695, 0.23579539358615875, -0.024529321119189262], [0.1639566868543625, -0.05007579177618027, -0.05005202069878578, -0.05469480901956558, -0.12293997406959534, 0.10773709416389465, -0.007625396363437176, -0.05573742836713791, 0.144878089427948, -0.07544640451669693], [-0.03987423703074455, -0.022538505494594574, 0.006992938928306103, -0.005445738788694143, -0.05433960258960724, 0.20851527154445648, -0.07106228172779083, -0.02037336304783821, 0.036307696253061295, -0.03818231076002121], [-0.01786695420742035, -0.005698948632925749, 0.0025318225380033255, -0.0011351400753483176, -0.007875669747591019, 0.058055978268384933, -0.0351271890103817, -0.0065019805915653706, 0.025206902995705605, -0.011588815599679947], [-0.0002803121751639992, 0.0005494783399626613, -8.875886123860255e-05, -2.3168879124568775e-05, -0.0003857240662910044, 0.002419448923319578, -0.002749705919995904, -0.0006164460210129619, 0.0022085781674832106, -0.0010333886602893472], [-2.47806815423246e-06, -1.3115243291395018e-07, -2.7194496396987233e-06, -1.2472378330130596e-05, -4.683320184994955e-06, -5.597094968834426e-06, -2.9140963420104526e-07, 0.000582561653573066, -7.411718797811773e-06, -0.0005467770388349891], [-0.00011608225031523034, -4.737015478895046e-05, -4.475308014662005e-05, -0.0015721770469099283, -0.007901721633970737, -0.0028369815554469824, -0.00028579370700754225, 0.02321523427963257, -0.00042057392420247197, -0.009989789687097073], [-0.0020374953746795654, -0.0004964590771123767, -0.0005260739708319306, -0.0051628113724291325, -0.028090937063097954, -0.00586187606677413, -0.0009159409091807902, 0.08623664826154709, -0.002928963163867593, -0.040216103196144104], [-0.014667716808617115, -0.0006137416930869222, -0.026112059131264687, -0.0014818527270108461, -0.04946490004658699, -0.016121109947562218, -0.015782255679368973, 0.1530400663614273, 0.004556931555271149, -0.0333532877266407], [-0.06741559505462646, -0.0010808974038809538, -0.08397793024778366, -0.03349286690354347, -0.08485541492700577, 0.0012244543759152293, -0.03597044572234154, 0.19366852939128876, 0.011807285249233246, 0.10009292513132095], [-0.02764788269996643, -0.024677539244294167, -0.2537681460380554, -0.142666295170784, -0.03515208885073662, 0.048742424696683884, -0.00933457724750042, 0.13256733119487762, 0.0919545367360115, 0.21998220682144165], [0.06234743446111679, -0.04977165162563324, -0.4501403272151947, -0.25164103507995605, 0.07933703064918518, 0.14682739973068237, 0.07854675501585007, 0.039166148751974106, 0.10957903414964676, 0.235748752951622], [0.05286397039890289, -0.07364368438720703, -0.5255270004272461, -0.3218401372432709, 0.18746285140514374, 0.13396765291690826, 0.12027258425951004, 0.10563924908638, 0.15034480392932892, 0.17045976221561432], [0.0020232105161994696, -0.11266802251338959, -0.43514931201934814, -0.2985687255859375, 0.2734830975532532, 0.10027948766946793, 0.09286299347877502, 0.10982166975736618, 0.10250397771596909, 0.1654103398323059], [-0.00989675335586071, -0.15442249178886414, -0.43665385246276855, -0.1534716784954071, 0.24637964367866516, 0.029465045779943466, 0.11533074080944061, 0.02493206039071083, 0.12177946418523788, 0.2165575474500656], [0.021126022562384605, -0.24894025921821594, -0.4632735252380371, -0.031061513349413872, 0.3678099513053894, 0.17452837526798248, 0.05940819904208183, -0.05317703261971474, -0.020018070936203003, 0.19359710812568665], [0.04127664864063263, -0.31226685643196106, -0.4570840895175934, -0.04787822812795639, 0.46512115001678467, 0.2798291742801666, 0.15501409769058228, -0.15799115598201752, -0.026822978630661964, 0.060802161693573], [0.05234108492732048, -0.11169727146625519, -0.467704176902771, 0.042466238141059875, 0.3756945729255676, 0.320930540561676, 0.15514317154884338, -0.36592626571655273, 0.14476080238819122, -0.1460098773241043], [-0.12119944393634796, 0.2149396687746048, -0.42624548077583313, 0.14322501420974731, -0.1133623868227005, 0.28178492188453674, 0.05817651003599167, -0.423835813999176, 0.3756406009197235, 0.0108763687312603], [-0.41504085063934326, 0.6866951584815979, -0.3722422420978546, 0.27456846833229065, -0.26750999689102173, 0.026572715491056442, -0.19431641697883606, -0.1782429963350296, 0.24442355334758759, 0.19509197771549225], [-0.533176839351654, 0.4882138967514038, -0.32180100679397583, 0.15720055997371674, 0.11655892431735992, -0.12442377954721451, -0.22133028507232666, 0.15300075709819794, 0.05904936045408249, 0.22670778632164001], [-0.47809192538261414, 0.1049845740199089, -0.235509991645813, 0.0971132293343544, 0.306567519903183, -0.2884232699871063, -0.0879068523645401, 0.32734009623527527, -0.004336262121796608, 0.2582625150680542], [-0.21783344447612762, -0.005175519734621048, -0.19931873679161072, 0.09126634895801544, 0.13695240020751953, -0.27664148807525635, -0.09744638949632645, 0.2836908996105194, -0.024495963007211685, 0.30900198221206665], [-0.04787575453519821, -0.09938162565231323, -0.1012883260846138, 0.10499096661806107, 0.024921590462327003, -0.2385776787996292, -0.12490499019622803, 0.22030721604824066, -0.04234979674220085, 0.30415821075439453], [0.023663807660341263, -0.15257684886455536, 0.053215574473142624, -0.008747562766075134, 0.027730651199817657, -0.2872001528739929, -0.13744282722473145, 0.06317918747663498, 0.07575584203004837, 0.3424224555492401], [0.027766559273004532, -0.11560408771038055, -0.016865750774741173, -0.08722776919603348, 0.01486594695597887, -0.3797897398471832, -0.048623207956552505, 0.08367705345153809, 0.16785402595996857, 0.3539467453956604], [0.11421588063240051, -0.07329981029033661, -0.03478257730603218, -0.2078840732574463, 0.024531709030270576, -0.4923299551010132, 0.09097523987293243, 0.048765625804662704, 0.23901255428791046, 0.2907956540584564], [0.27301934361457825, -0.055131345987319946, -0.10906993597745895, -0.16329608857631683, -0.029397496953606606, -0.526233434677124, 0.21037499606609344, 0.01648104004561901, 0.21591681241989136, 0.16733615100383759], [0.3208588659763336, -0.03308838978409767, -0.16176019608974457, -0.09939169138669968, -0.09000246971845627, -0.4111625850200653, 0.2725856900215149, -0.036788973957300186, 0.2054539918899536, 0.03329497203230858], [0.21727779507637024, -0.022460920736193657, -0.012834739871323109, -0.03956180810928345, -0.05115894600749016, -0.23773790895938873, 0.11635804921388626, -0.035655826330184937, 0.13662323355674744, -0.07084915786981583], [-0.0008421831880696118, -0.009827936999499798, 0.04961906373500824, -0.0005497108213603497, -0.013392593711614609, 0.003617652924731374, -0.03381721302866936, 0.002176715526729822, 0.03611961379647255, -0.03310341760516167], [-0.008425461128354073, -0.004431100562214851, 0.02807251550257206, -0.0003272899775765836, -0.004480248317122459, 0.021317947655916214, -0.033002909272909164, 0.0035982809495180845, 0.00856602843850851, -0.01088778767734766], [-7.301656296476722e-05, 0.0003325559082441032, 0.0028050204273313284, -3.276571806054562e-05, -0.0015761475078761578, -0.00044783245539292693, -0.0017382773803547025, 0.0022548879496753216, -0.0011438991641625762, -0.00038052647141739726], [-8.069609691574442e-08, 2.5585717594367452e-05, -3.371747652636259e-06, -7.098093647073256e-06, -3.0996974942354427e-07, -1.1268682555964915e-06, -1.3502399269782472e-06, -2.7916498765989672e-06, -4.849592187383678e-06, -4.606835773302009e-06], [0.0002503476571291685, -1.3383741134020966e-05, -3.4831002267310396e-05, -0.0010215418878942728, -0.0054938094690442085, -0.0007832731935195625, -0.00026216518017463386, 0.012313304468989372, -0.00011616940173553303, -0.004838481079787016], [-0.0013620683457702398, -0.00016629116726107895, -0.00023108403547666967, -0.003149158088490367, -0.01694597117602825, -0.0022991911973804235, -0.00037373427767306566, 0.05234936997294426, -0.0009588660905137658, -0.026863006874918938], [-0.01227528415620327, 0.0010892688296735287, -0.030476735904812813, -0.0047845193184912205, -0.03701828420162201, -0.0024508752394467592, -0.012893417850136757, 0.10603629052639008, 0.0020004964899271727, -0.009226992726325989], [-0.04276540130376816, -0.0001273778616450727, -0.1310744732618332, -0.05691555142402649, -0.03039235807955265, 0.02285834774374962, -0.041544076055288315, 0.12138616293668747, -0.019983287900686264, 0.17855799198150635], [0.011436594650149345, -0.021569902077317238, -0.3347260057926178, -0.14062845706939697, 0.08341669291257858, 0.07558012753725052, 0.023044714704155922, 0.0717482641339302, -0.01437591202557087, 0.24607343971729279], [0.1273874193429947, -0.043798450380563736, -0.4946693480014801, -0.22897490859031677, 0.23130755126476288, 0.06954590231180191, 0.146348774433136, 0.02650494873523712, -0.025448443368077278, 0.1917964667081833], [0.15105250477790833, -0.06959464401006699, -0.47238168120384216, -0.2785346806049347, 0.287934273481369, 0.12397173792123795, 0.10188276320695877, 0.035416122525930405, -0.033642448484897614, 0.15389594435691833], [0.07754089683294296, -0.08122175186872482, -0.342412531375885, -0.1972004622220993, 0.29655906558036804, 0.0792679712176323, 0.1048659086227417, -0.008902977220714092, -0.06592508405447006, 0.13742892444133759], [0.07075324654579163, -0.17374557256698608, -0.2674891948699951, -0.09782006591558456, 0.2766410708427429, 0.09395834058523178, 0.11331209540367126, -0.08202333748340607, -0.027553802356123924, 0.09396693855524063], [0.10610700398683548, -0.3568100333213806, -0.19076955318450928, -0.12396375834941864, 0.40241798758506775, 0.2207513153553009, 0.1446164846420288, -0.1720067262649536, -0.10391983389854431, 0.07357706874608994], [0.09361144155263901, -0.41858330368995667, -0.10492729395627975, -0.10314618796110153, 0.5225008130073547, 0.2664607763290405, 0.16903521120548248, -0.4163218140602112, 0.04080663248896599, -0.049437008798122406], [0.01767958328127861, -0.17177937924861908, -0.11530008912086487, 0.0861043632030487, 0.2933211326599121, 0.29486581683158875, 0.13589558005332947, -0.6521220803260803, 0.22363026440143585, -0.11229467391967773], [-0.2912842035293579, 0.2828184962272644, -0.05131257325410843, 0.225139781832695, -0.06645031273365021, 0.18438993394374847, -0.018031461164355278, -0.6676028370857239, 0.3230142891407013, 0.0793188214302063], [-0.49449729919433594, 0.6277058720588684, -0.08743524551391602, 0.1739584505558014, -0.09169746935367584, -0.01472487859427929, -0.12561781704425812, -0.31416237354278564, 0.10707034915685654, 0.21940118074417114], [-0.5713031888008118, 0.40880122780799866, -0.21202322840690613, -0.0004237377434037626, 0.1664760261774063, -0.22532708942890167, 0.006478556431829929, 0.012219861149787903, 0.18432237207889557, 0.2307790070772171], [-0.4862411916255951, 0.08609789609909058, -0.229559063911438, 0.07131168246269226, 0.26953986287117004, -0.34118857979774475, 0.03791394829750061, 0.15822263062000275, 0.07968275249004364, 0.3542200028896332], [-0.2543426752090454, -0.03956731781363487, -0.1345900148153305, 0.09595268219709396, 0.24185216426849365, -0.22642862796783447, -0.08079316467046738, 0.1352294683456421, -0.05718584358692169, 0.319873571395874], [-0.0908118188381195, -0.1924760788679123, -0.10329031944274902, 0.09370031952857971, 0.15414975583553314, -0.14249460399150848, -0.12411121279001236, 0.12597987055778503, 0.010245071724057198, 0.2691083252429962], [-0.07159243524074554, -0.17354777455329895, -0.05977587401866913, -0.07532472908496857, 0.12118956446647644, -0.10236744582653046, -0.05470620468258858, 0.06988576799631119, 0.04173198342323303, 0.3045070767402649], [-0.08347935974597931, -0.11609993129968643, -0.05884889140725136, -0.22144421935081482, 0.15633565187454224, -0.1345333307981491, -0.02232937701046467, 0.10272401571273804, 0.09873007982969284, 0.27894535660743713], [0.08645179867744446, -0.07577559351921082, -0.056257955729961395, -0.2038579136133194, 0.0998932272195816, -0.2660062611103058, 0.14289550483226776, 0.0500490628182888, 0.015062379650771618, 0.20754528045654297], [0.2516295909881592, -0.057459745556116104, -0.11687656491994858, -0.18364261090755463, 0.04122404754161835, -0.3186257779598236, 0.2824838161468506, 0.018404580652713776, 0.030287805944681168, 0.05257461965084076], [0.3139369785785675, -0.04637385904788971, -0.11594223976135254, -0.1007533147931099, -0.03048856370151043, -0.3379887640476227, 0.3475235402584076, 0.008443470112979412, 0.04163597524166107, -0.07999276369810104], [0.19942499697208405, -0.034098103642463684, 0.043770931661129, -0.0374353863298893, -0.05136070027947426, -0.21391144394874573, 0.17227156460285187, 0.006898334249854088, 0.020323215052485466, -0.10588309913873672], [0.016953565180301666, -0.015767090022563934, 0.11026278883218765, -0.004656074568629265, -0.003224299754947424, -0.034944429993629456, -0.035784073173999786, 0.010779118165373802, 0.0018772549228742719, -0.04549681395292282], [-0.002770731458440423, -0.006117088254541159, 0.06778628379106522, -0.0005751685239374638, -0.004445257596671581, -0.0008891538018360734, -0.03755483776330948, 0.0001888906699605286, -0.0038127771113067865, -0.011810201220214367], [-0.0004870728007517755, -0.0002520021516829729, 0.018027281388640404, -0.0007261590217240155, -0.004484242759644985, -0.0033338817302137613, -0.006075751036405563, -0.0009227401460520923, -0.0011901163961738348, -0.0005553149385377765], [-3.675554762594402e-05, -1.5256022152243531e-06, -7.27047563486849e-06, -0.00059144152328372, -2.1300846128724515e-05, 0.001768468297086656, -4.996909774490632e-05, -2.3460457668988965e-05, -0.00012800635886378586, -0.0009087384678423405], [-8.189817162929103e-05, -8.443277693004347e-06, -0.002162487944588065, 0.0022363353054970503, -0.002808080753311515, -0.00042557346750982106, -4.239851841703057e-05, 0.005762227810919285, -0.00033318495843559504, -0.00213649426586926], [-0.0009836388053372502, 0.00013748914352618158, -0.0015740395756438375, 0.00022975118190515786, -0.007579172495752573, -0.0011479394743219018, -0.0001103484391933307, 0.026992445811629295, -0.0005302384961396456, -0.015434319153428078], [-0.020604675635695457, 0.0024502307642251253, -0.02581503987312317, 0.0019371170783415437, -0.005603551398962736, -0.001075778272934258, -0.008858105167746544, 0.05186045169830322, -0.0063064428977668285, 0.012015843763947487], [-0.033818453550338745, 0.0016263520810753107, -0.09823495894670486, -0.02636261098086834, 0.08086581528186798, 0.009357196278870106, -0.0699453130364418, 0.0482608824968338, -0.044697344303131104, 0.1329483985900879], [0.09292704612016678, -0.026196157559752464, -0.2674201428890228, -0.1194746345281601, 0.1962222456932068, -0.001846418366767466, 0.014099477790296078, 0.044257842004299164, -0.0772315263748169, 0.14466193318367004], [0.1599787324666977, -0.049692898988723755, -0.2697989344596863, -0.21848179399967194, 0.27235594391822815, -0.01334479358047247, 0.12702378630638123, -0.018101515248417854, -0.14816510677337646, 0.15822705626487732], [0.21453224122524261, -0.07832105457782745, -0.17411750555038452, -0.24434024095535278, 0.3314318060874939, 0.01192508265376091, 0.1075865626335144, -0.04748784005641937, -0.23302695155143738, 0.11181779950857162], [0.1492038518190384, -0.0957750603556633, -0.10249628126621246, -0.18755285441875458, 0.305907666683197, 0.07803622633218765, 0.12441333383321762, -0.12018612027168274, -0.22968946397304535, 0.07813796401023865], [0.15082485973834991, -0.20857763290405273, -0.03876795247197151, -0.1323484480381012, 0.2571440041065216, 0.18009057641029358, 0.15801994502544403, -0.20469824969768524, -0.1902460902929306, 0.028559328988194466], [0.1439504772424698, -0.3925473093986511, 0.030351290479302406, -0.17038463056087494, 0.3132655620574951, 0.23902525007724762, 0.20745941996574402, -0.3039145767688751, -0.06146752089262009, -0.0057377200573682785], [0.12029216438531876, -0.4139251112937927, 0.07399719208478928, -0.1294177770614624, 0.34756332635879517, 0.1300313025712967, 0.2824007272720337, -0.5055601596832275, 0.14208759367465973, -0.04746946319937706], [-0.04809248074889183, -0.09157932549715042, 0.0691470131278038, 0.09154682606458664, 0.1873602271080017, 0.1322953701019287, 0.12846897542476654, -0.6469478607177734, 0.2427387684583664, -0.0649377852678299], [-0.3504001796245575, 0.34763485193252563, 0.17178265750408173, 0.11011200398206711, -0.06904058158397675, 0.06096097081899643, -0.05251125991344452, -0.5531888008117676, 0.32412782311439514, 0.010522125288844109], [-0.5367603302001953, 0.5545600652694702, 0.0637059360742569, 0.09322383254766464, -0.05317506939172745, -0.0711374580860138, -0.03329535573720932, -0.24512743949890137, 0.20290449261665344, 0.025100935250520706], [-0.5614877939224243, 0.3499806821346283, -0.09797605127096176, 0.02631351165473461, 0.13483300805091858, -0.1833207607269287, 0.07060756534337997, -0.035623446106910706, 0.14703494310379028, 0.14963865280151367], [-0.49107101559638977, 0.03443384915590286, -0.09264930337667465, 0.00529999565333128, 0.3375563323497772, -0.24179424345493317, 0.07463876903057098, 0.056594349443912506, -0.004941185005009174, 0.321932852268219], [-0.21307048201560974, -0.22904984652996063, -0.1316860020160675, 0.06337104737758636, 0.3840702772140503, -0.22156386077404022, -0.12271927297115326, 0.18642668426036835, 0.002491873921826482, 0.28172922134399414], [-0.08785037696361542, -0.2923281192779541, -0.06549511849880219, 0.046954598277807236, 0.24343156814575195, -0.13238169252872467, -0.13138681650161743, 0.3045136034488678, -0.04216711223125458, 0.15670959651470184], [-0.08525817096233368, -0.21946091949939728, -0.08529064804315567, -0.0277769286185503, 0.25085046887397766, -0.12650497257709503, -0.050688307732343674, 0.3190809190273285, -0.07359424978494644, 0.09864314645528793], [-0.021772757172584534, -0.14293870329856873, -0.04745778068900108, -0.099624402821064, 0.16436737775802612, -0.04518643394112587, 0.009594922885298729, 0.21404747664928436, -0.15106087923049927, 0.12003099173307419], [0.11556709557771683, -0.09299154579639435, -0.0939924418926239, -0.04907071962952614, 0.06562613695859909, -0.10013401508331299, 0.13675078749656677, 0.14722312986850739, -0.15807728469371796, 0.0290985107421875], [0.19923128187656403, -0.06596938520669937, -0.10408172756433487, -0.1075090765953064, 0.03207772225141525, -0.11899103969335556, 0.26869726181030273, 0.14798711240291595, -0.1544453501701355, -0.09699701517820358], [0.27332934737205505, -0.0478169210255146, -0.03774833679199219, -0.07853192836046219, -0.024562304839491844, -0.16462253034114838, 0.2795018255710602, 0.09315049648284912, -0.1204475685954094, -0.17225192487239838], [0.18997107446193695, -0.026516150683164597, 0.08215489238500595, -0.031725093722343445, -0.05442170053720474, -0.12335530668497086, 0.13272807002067566, 0.02295500412583351, -0.06568203121423721, -0.1261088103055954], [0.012205693870782852, -0.013961870223283768, 0.1433733105659485, -0.010640229098498821, -0.02202191948890686, -0.04322828724980354, -0.026135211810469627, 0.003951246850192547, -0.007352097891271114, -0.036190666258335114], [-0.0017700126627460122, -0.0024513357784599066, 0.07831420749425888, -0.003618628950789571, -0.013167853467166424, -0.005547280423343182, -0.04144084453582764, -0.0012662854278460145, -0.004407790955156088, -0.004644169472157955], [-5.80969535803888e-05, -2.2321697542793117e-05, 0.002283859997987747, -0.0005358981434255838, -0.000483188487123698, -0.0002173365792259574, -0.0007405519718304276, -1.285023336095037e-05, -0.00019539940694812685, -1.821618207031861e-05], [-1.347088982583955e-05, -6.137499894975917e-07, -2.5337576516903937e-06, -0.00019481516210362315, -1.0636423212417867e-05, 0.0005669784150086343, -1.687138319539372e-05, 1.8870530766434968e-05, -4.3760046537499875e-05, -0.00030314750620163977], [-8.35054088383913e-05, -1.0022532478615176e-05, -0.004610683768987656, 0.005718632135540247, -3.127856325590983e-05, -0.0002440363314235583, -1.843274549173657e-05, -4.274747334420681e-05, -0.000637649092823267, -4.0276649087900296e-05], [-0.0009840233251452446, 0.0009955293498933315, -0.003137631341814995, 0.007327964063733816, 0.0017412913730368018, -0.001346850534901023, -0.0002670463582035154, 0.007977820001542568, -0.001119618071243167, -0.011187429539859295], [-0.02645556442439556, 0.0009633516892790794, 0.010006331838667393, 0.015485325828194618, 0.013275007717311382, -0.007333420217037201, -0.02363714762032032, 0.0206682700663805, -0.008255462162196636, 0.00528330635279417], [0.00034599960781633854, -0.0043059103190898895, 0.009898246265947819, 0.02396181784570217, 0.07278125733137131, -0.020560255274176598, -0.10667464137077332, 0.008227300830185413, -0.048703983426094055, 0.06503023952245712], [0.15642808377742767, -0.040386516600847244, -0.00833952333778143, -0.04409652203321457, 0.1520339846611023, -0.10125945508480072, -0.01616147719323635, -0.03521540015935898, -0.12875019013881683, 0.0657464861869812], [0.14914776384830475, -0.08133060485124588, 0.021445773541927338, -0.1232321560382843, 0.2127123773097992, -0.10923212021589279, 0.11314412206411362, -0.03591387718915939, -0.19591926038265228, 0.049177706241607666], [0.21514582633972168, -0.09995932877063751, 0.009102395735681057, -0.2055579423904419, 0.3060303330421448, -0.12196363508701324, 0.15569044649600983, -0.09519202262163162, -0.22276082634925842, 0.05946478992700577], [0.18595005571842194, -0.12691818177700043, 0.021191028878092766, -0.2337169051170349, 0.32449936866760254, -0.01466949749737978, 0.14924654364585876, -0.20007027685642242, -0.1697050780057907, 0.0641925036907196], [0.2112731635570526, -0.2334059625864029, 0.03927764296531677, -0.22153958678245544, 0.2691533863544464, 0.10820204019546509, 0.17405709624290466, -0.2546839714050293, -0.07533858716487885, -0.01699497178196907], [0.2372702658176422, -0.32752135396003723, 0.032135769724845886, -0.16812177002429962, 0.19453425705432892, 0.11163702607154846, 0.28834986686706543, -0.31513768434524536, -0.05639948323369026, 0.003252684371545911], [0.06125103309750557, -0.22067582607269287, 0.006652673240751028, -0.056038711220026016, 0.20257459580898285, 0.09335070848464966, 0.3240756690502167, -0.43338653445243835, 0.01974986121058464, 0.002446192316710949], [-0.1905394047498703, 0.025412708520889282, 0.07587772607803345, 0.07613738626241684, 0.09940888732671738, 0.09609701484441757, 0.13101081550121307, -0.4968179762363434, 0.22599953413009644, -0.04258691146969795], [-0.4762730598449707, 0.386107861995697, 0.18354664742946625, 0.1324395388364792, -0.05887887626886368, -0.04835674166679382, 0.0301340501755476, -0.35347816348075867, 0.3304378390312195, -0.12567809224128723], [-0.5894723534584045, 0.5438036322593689, 0.08073978126049042, 0.11461955308914185, 0.044862981885671616, -0.2248842567205429, 0.11307397484779358, -0.17872370779514313, 0.23804956674575806, -0.14206892251968384], [-0.5495550632476807, 0.18993891775608063, 0.0048122648149728775, 0.03578639775514603, 0.24957020580768585, -0.2362450361251831, 0.10357388108968735, 0.01853770576417446, 0.08248339593410492, 0.10109692066907883], [-0.3964955508708954, -0.07828718423843384, 0.008780935779213905, -0.05743096396327019, 0.41590213775634766, -0.20303407311439514, -0.0025656819343566895, 0.04955266788601875, -0.01970684342086315, 0.28328409790992737], [-0.1792951077222824, -0.3543838560581207, -0.04927331581711769, -0.011832162737846375, 0.35758116841316223, -0.16469965875148773, -0.09112069010734558, 0.3231394290924072, -0.09389731287956238, 0.2637811303138733], [-0.046535130590200424, -0.3126944601535797, -0.10222292691469193, 0.01124995294958353, 0.20217964053153992, -0.008953963406383991, -0.08669576048851013, 0.3848068416118622, -0.12901775538921356, 0.08788343518972397], [-0.02337518334388733, -0.23876117169857025, -0.06257007271051407, 0.09851393848657608, 0.1664309948682785, -0.07177744060754776, -0.0013323136372491717, 0.32049018144607544, -0.20119595527648926, 0.01357655506581068], [0.05638989061117172, -0.165946826338768, -0.12071625143289566, 0.14774134755134583, 0.04693515971302986, -0.07407375425100327, 0.07331842929124832, 0.2969614565372467, -0.2579135000705719, -0.002696326235309243], [0.1036878153681755, -0.10916855931282043, -0.09392845630645752, 0.11062033474445343, 0.0004750775406137109, -0.03836929798126221, 0.13078118860721588, 0.2522118389606476, -0.24034593999385834, -0.11596424132585526], [0.18394239246845245, -0.0792882964015007, -0.1053793653845787, 0.06923321634531021, 0.003525560488924384, -0.049742911010980606, 0.1449756771326065, 0.20110681653022766, -0.17953386902809143, -0.18884004652500153], [0.23094534873962402, -0.05413040146231651, -0.006187808699905872, 0.02357468567788601, -0.050369374454021454, -0.04823267459869385, 0.16640906035900116, 0.07376705855131149, -0.1473856121301651, -0.18839043378829956], [0.13858330249786377, -0.032540157437324524, 0.18233199417591095, -0.004606718197464943, -0.10469011217355728, -0.04687514156103134, 0.08214424550533295, 0.007274871692061424, -0.09817817807197571, -0.12344411760568619], [0.001085447147488594, -0.014079995453357697, 0.2104043811559677, -0.016747625544667244, -0.047627877444028854, -0.031343597918748856, -0.030043385922908783, -0.013766522519290447, -0.019185379147529602, -0.038695596158504486], [-0.002976122312247753, -0.004212485626339912, 0.0907445177435875, -0.005068934056907892, 0.0015156838344410062, -0.00891376193612814, -0.04790304973721504, -0.0020026734564453363, -0.009511658921837807, -0.011671440675854683], [-0.0005614811670966446, -0.0004541737725958228, 0.010737371630966663, -0.0003036962589249015, -0.0008093906217254698, -0.002617498394101858, -0.0037369304336607456, -0.00018615687440615147, -0.0012998466845601797, -0.0007681964198127389], [-8.205070116673596e-06, -6.5266453930235e-07, -8.751999303058255e-07, -6.613486220885534e-06, -2.092463182634674e-05, -6.901486631250009e-05, -2.9132784220564645e-06, 0.00015172726125456393, -1.0551197192398831e-05, -3.197685509803705e-05], [-6.334389763651416e-05, 9.61254227149766e-06, -0.0023730057291686535, 0.003865206381306052, -2.3223195967148058e-05, -0.00015049138164613396, -2.3423639504471794e-05, -0.00045738363405689597, -0.0003492507676128298, -0.00043469754746183753], [-0.0017644016770645976, 0.0007892938447184861, -0.003355381079018116, 0.02126166969537735, -0.0023481356911361217, -0.0028582466766238213, -0.0008890061872079968, -9.302148828282952e-05, -0.002680025529116392, -0.008062733337283134], [-0.027642156928777695, -0.0017564913723617792, 0.0566675066947937, 0.05709002539515495, -0.02075025625526905, -0.0017582273576408625, -0.03829953819513321, -0.006833460181951523, -0.009053980931639671, -0.007663407828658819], [0.016283435747027397, -0.009126919321715832, 0.12227460741996765, 0.09289977699518204, -0.02499428577721119, -0.025967853143811226, -0.1264769732952118, -0.006669479422271252, -0.06583517789840698, 0.02761276811361313], [0.19425790011882782, -0.05953458324074745, 0.13963550329208374, 0.023013874888420105, 0.04417366534471512, -0.09549620747566223, -0.0420164093375206, -0.057286567986011505, -0.1470838040113449, 0.00033625567448325455], [0.1991024911403656, -0.13383927941322327, 0.17911534011363983, -0.08999805897474289, 0.12757036089897156, -0.1262330412864685, 0.10247784852981567, -0.05073622614145279, -0.15924902260303497, -0.04821028560400009], [0.1689983606338501, -0.16488386690616608, 0.08787374943494797, -0.1635775864124298, 0.2592419683933258, -0.25419050455093384, 0.1998702585697174, -0.05664314329624176, -0.08244553208351135, 0.005755883641541004], [0.2051994502544403, -0.18477627635002136, 0.011209875345230103, -0.25053200125694275, 0.30730482935905457, -0.252991259098053, 0.1861734539270401, -0.15943089127540588, 0.048122674226760864, 0.08972010016441345], [0.22519437968730927, -0.18635137379169464, 0.08324997127056122, -0.2216639667749405, 0.2025565356016159, -0.2038635015487671, 0.23056623339653015, -0.20431558787822723, 0.08295248448848724, -0.008325442671775818], [0.2291967123746872, -0.14731578528881073, 0.09553690254688263, -0.2240981161594391, 0.029527077451348305, -0.12886416912078857, 0.3561718761920929, -0.3080005645751953, 0.03380153328180313, 0.06404442340135574], [0.02294323593378067, -0.10362868756055832, 0.14625245332717896, -0.1063927412033081, 0.003372379345819354, -0.10339520126581192, 0.3837870955467224, -0.3815060257911682, 0.06914078444242477, 0.06942645460367203], [-0.2832726538181305, -0.007507509086281061, 0.24140486121177673, 0.005565975327044725, 0.0499056801199913, -0.06426633149385452, 0.07656291127204895, -0.27298566699028015, 0.29632651805877686, -0.04173384606838226], [-0.5216439366340637, 0.37878796458244324, 0.2493603378534317, 0.08467430621385574, 0.07236310839653015, -0.15240724384784698, 0.04298572614789009, -0.16898196935653687, 0.20067885518074036, -0.18581683933734894], [-0.5422524809837341, 0.4944564998149872, 0.09035134315490723, -0.028309248387813568, 0.25830718874931335, -0.23955322802066803, 0.13827331364154816, -0.10360762476921082, 0.05321091040968895, -0.12087662518024445], [-0.440669447183609, 0.051460277289152145, 0.018120234832167625, -0.1330445110797882, 0.427450567483902, -0.17945869266986847, 0.07814459502696991, 0.08038043975830078, 0.034020036458969116, 0.06359609961509705], [-0.26547113060951233, -0.2038571834564209, 0.12123668938875198, -0.14546629786491394, 0.3870514929294586, -0.1586436927318573, -0.0686166062951088, 0.1045437827706337, 0.022452574223279953, 0.20676976442337036], [-0.06666716188192368, -0.40691378712654114, 0.0962049812078476, -0.01411551795899868, 0.26477494835853577, -0.07762379944324493, -0.11571531742811203, 0.2341545820236206, -0.07206464558839798, 0.1579660326242447], [0.00494971452280879, -0.3253013789653778, 0.0004633815842680633, 0.12904812395572662, 0.16710224747657776, -0.02547484263777733, 0.02777044288814068, 0.20305190980434418, -0.21972540020942688, 0.038115572184324265], [0.028845036402344704, -0.23094764351844788, -0.020738283172249794, 0.18046844005584717, 0.08323775231838226, -0.00870734453201294, 0.08971496671438217, 0.2204761803150177, -0.26474353671073914, -0.07760562747716904], [0.08842790126800537, -0.16013817489147186, -0.03623516857624054, 0.16205891966819763, 0.08177178353071213, 0.007367141079157591, 0.0444214753806591, 0.17994588613510132, -0.2536550760269165, -0.11396525800228119], [0.11274456977844238, -0.10624144226312637, 0.08063545823097229, 0.18111439049243927, 0.023973578587174416, -0.015324086882174015, 0.03897281736135483, 0.1570824682712555, -0.25347423553466797, -0.21948350965976715], [0.15348340570926666, -0.08111930638551712, 0.0854768455028534, 0.17083348333835602, -0.07245031744241714, 0.027515795081853867, 0.04367076978087425, 0.05865874141454697, -0.1920255720615387, -0.19404423236846924], [0.1501879096031189, -0.06135164201259613, 0.13723315298557281, 0.10649454593658447, -0.10299629718065262, 0.029703320935368538, 0.060446325689554214, -0.009503521025180817, -0.10251464694738388, -0.20769955217838287], [0.05419674143195152, -0.037429265677928925, 0.2613336145877838, 0.02807004749774933, -0.09475360810756683, -0.005688725970685482, 0.025531167164444923, -0.01700911484658718, -0.08753814548254013, -0.12671275436878204], [-0.017513765022158623, -0.022454751655459404, 0.30413228273391724, -0.02529001608490944, -0.05180392414331436, -0.030402395874261856, -0.05421416833996773, -0.01956304907798767, -0.045305509120225906, -0.03758465498685837], [-0.008565586991608143, -0.008129623718559742, 0.12346679717302322, -0.005855869967490435, -0.01758425123989582, -0.013106458820402622, -0.04408048465847969, -0.0019513446604833007, -0.015365298837423325, -0.008827870711684227], [-0.0007585385465063155, -0.0002281390770804137, 0.01560242846608162, -0.0003418584237806499, -0.0008116487879306078, -0.004534561652690172, -0.007528453599661589, -0.00012613646686077118, -0.0010465162340551615, -0.0002265790681121871], [0.0, 0.0, 0.0, 0.0, 0.0, 0.0, 0.0, 0.0, 0.0, 0.0], [-4.182682459941134e-05, 0.0001634152140468359, -0.0009509865194559097, 0.0013583650579676032, -1.597974005562719e-05, -0.00011002241080859676, -2.7785205020336434e-05, -2.9844934033462778e-05, -0.00023036419588606805, -0.00011497036757646129], [-0.003279975149780512, -0.0003276833158452064, 0.0020033742766827345, 0.026027170941233635, -0.0021001058630645275, -0.0049249883741140366, -0.0017822448862716556, -0.001286915154196322, -0.0029120752587914467, -0.011416541412472725], [-0.033938903361558914, -0.0033544909674674273, 0.08330269157886505, 0.11204897612333298, -0.05765320360660553, 0.0017091970657929778, -0.04450679197907448, -0.010136712342500687, -0.018441611900925636, -0.029028985649347305], [0.00907585397362709, -0.017783356830477715, 0.20954886078834534, 0.1472078263759613, -0.057806409895420074, 0.007359894923865795, -0.15226446092128754, -0.01262054406106472, -0.07925602048635483, -0.053461723029613495], [0.17304639518260956, -0.104429692029953, 0.24661819636821747, 0.05013475567102432, -0.04672582820057869, 0.06253913789987564, -0.10050730407238007, -0.05773149058222771, -0.13860514760017395, -0.0843391939997673], [0.20237967371940613, -0.1999680995941162, 0.19940398633480072, -0.052093084901571274, 0.0235361959785223, 0.1282290816307068, 0.02484397031366825, -0.12357965111732483, -0.11572237312793732, -0.08702992647886276], 